svm_type c_svc
kernel_type polynomial
degree 3
gamma 0.00250627
coef0 0
nr_class 10
total_sv 1130
rho -0.770338 -0.428902 -0.319661 -0.0175353 0.755524 -0.437887 -0.229134 -0.616189 -1.02032 1.18197 1.09169 0.320472 0.637281 0.541389 0.387982 0.248564 0.305192 1.24692 0.174952 0.70438 0.43697 0.555938 0.852394 0.100427 0.0749091 0.864275 0.471294 0.12487 -0.83277 -0.361461 0.550233 -0.406393 0.632045 -0.484191 -0.731137 -0.779206 -0.759725 -1.41003 -2.03666 0.364018 -0.50672 -0.186043 -0.282904 -0.543073 -0.08159
label -12 -10 -16 -15 -13 -9 -17 -8 -14 -11
probA -4.89283 -4.66594 -4.99036 -4.93536 -4.93033 -4.83242 -4.9259 -5.04913 -4.75841 -4.15515 -5.10428 -5.00398 -5.11436 -4.83178 -4.98998 -5.03093 -4.80454 -4.54397 -4.49143 -4.5021 -4.67031 -4.56447 -4.44142 -4.65088 -4.85171 -4.99657 -4.79681 -4.92042 -5.09975 -4.8575 -4.88339 -4.66069 -4.94064 -4.82017 -4.74561 -4.97219 -4.90438 -5.05958 -4.99504 -4.71921 -4.92481 -4.81688 -4.76119 -4.81606 -4.97335
probB 0.079571 0.362105 -0.00961657 -0.0206861 0.0705655 -0.0882991 0.030481 0.0848027 -0.0701925 -0.0580177 -0.159508 -0.0238407 -0.125365 -0.279345 -0.120484 -0.292309 -0.133819 -0.180677 -0.23246 -0.34347 -0.56621 -0.348915 -0.176477 -0.398296 0.0515333 -0.20519 -0.227785 -0.0585171 -0.0804603 0.0153223 0.0447331 -0.130543 0.083971 0.0133336 0.0371436 -0.0840921 -0.100567 0.0914831 0.252561 0.0684171 0.116035 0.218489 -0.113001 -0.11939 -0.0312482
nr_sv 149 109 87 112 117 128 77 112 135 104
SV
0 0 0 0.1078486112572802 5.266070047910227 0 0 0 0 0:1 1:1 2:1 3:1 4:1 5:1 6:1 7:1 8:1 9:1 10:1 11:1 12:1 13:1 14:1 15:1 16:1 17:1 18:1 19:1 20:1 21:1 22:1 23:1 24:1 25:1 26:1 27:1 28:1 29:1 30:1 31:1 32:1 33:1 34:1 35:1 36:1 37:1 38:1 39:1 40:1 41:1 42:1 43:1 44:1 45:1 46:1 47:1 48:1 49:1 50:1 51:1 52:1 53:1 54:1 55:1 56:1 57:1 58:1 59:1 60:1 61:1 62:1 63:1 64:1 65:1 66:1 67:1 68:1 69:1 70:1 71:1 72:1 73:1 74:1 75:1 76:1 77:1 78:1 79:1 80:1 81:1 82:1 83:1 84:1 85:1 86:1 87:1 88:1 89:0 90:1 91:1 92:1 93:1 94:1 95:1 96:1 97:1 98:1 99:1 100:1 101:1 102:1 103:1 104:1 105:1 106:1 107:1 108:1 109:0 110:0 111:0 112:0 113:0 114:1 115:1 116:1 117:1 118:1 119:1 120:1 121:1 122:1 123:1 124:1 125:1 126:1 127:1 128:1 129:0 130:0 131:0 132:0 133:0 134:0 135:0 136:1 137:1 138:1 139:1 140:1 141:1 142:1 143:1 144:1 145:1 146:1 147:1 148:0 149:0 150:1 151:1 152:1 153:0 154:0 155:0 156:1 157:1 158:1 159:1 160:1 161:1 162:1 163:1 164:1 165:1 166:1 167:1 168:0 169:0 170:0 171:0 172:0 173:1 174:1 175:1 176:1 177:1 178:1 179:1 180:1 181:1 182:1 183:1 184:1 185:1 186:1 187:0 188:0 189:0 190:0 191:0 192:0 193:0 194:1 195:1 196:1 197:1 198:1 199:1 200:1 201:1 202:1 203:1 204:1 205:1 206:1 207:0 208:1 209:1 210:1 211:1 212:0 213:0 214:1 215:1 216:1 217:1 218:1 219:1 220:1 221:1 222:1 223:1 224:1 225:1 226:1 227:1 228:1 229:1 230:1 231:1 232:0 233:0 234:0 235:1 236:1 237:1 238:1 239:1 240:1 241:1 242:1 243:1 244:1 245:1 246:1 247:1 248:1 249:1 250:1 251:1 252:0 253:0 254:1 255:1 256:1 257:1 258:1 259:1 260:1 261:1 262:1 263:1 264:1 265:1 266:0 267:1 268:1 269:1 270:1 271:1 272:0 273:0 274:1 275:1 276:1 277:1 278:1 279:1 280:1 281:1 282:1 283:1 284:1 285:1 286:0 287:0 288:0 289:1 290:1 291:0 292:0 293:0 294:1 295:1 296:1 297:1 298:1 299:1 300:1 301:1 302:1 303:1 304:1 305:1 306:1 307:0 308:0 309:0 310:0 311:0 312:0 313:1 314:1 315:1 316:1 317:1 318:1 319:1 320:1 321:1 322:1 323:1 324:1 325:1 326:1 327:1 328:1 329:0 330:0 331:1 332:1 333:1 334:1 335:1 336:1 337:1 338:1 339:1 340:1 341:1 342:1 343:1 344:1 345:1 346:1 347:1 348:1 349:1 350:1 351:1 352:1 353:1 354:1 355:1 356:1 357:1 358:1 359:1 360:1 361:1 362:1 363:1 364:1 365:1 366:1 367:1 368:1 369:1 370:1 371:1 372:1 373:1 374:1 375:1 376:1 377:1 378:1 379:1 380:1 381:1 382:1 383:1 384:1 385:1 386:1 387:1 388:1 389:1 390:1 391:1 392:1 393:1 394:1 395:1 396:1 397:1 398:1 399:1 
0 0 0 0 16.04553563002605 0 0 0 0 0:1 1:1 2:1 3:1 4:1 5:1 6:1 7:1 8:1 9:1 10:1 11:1 12:1 13:1 14:1 15:1 16:1 17:1 18:1 19:1 20:1 21:1 22:1 23:1 24:1 25:1 26:1 27:1 28:1 29:1 30:1 31:1 32:1 33:1 34:1 35:1 36:1 37:1 38:1 39:1 40:1 41:1 42:1 43:1 44:1 45:1 46:1 47:1 48:1 49:1 50:1 51:1 52:1 53:1 54:1 55:1 56:1 57:1 58:1 59:1 60:1 61:1 62:1 63:1 64:1 65:1 66:1 67:0 68:0 69:0 70:0 71:1 72:1 73:1 74:1 75:1 76:1 77:1 78:1 79:1 80:1 81:1 82:1 83:1 84:1 85:1 86:0 87:0 88:0 89:0 90:0 91:0 92:0 93:0 94:0 95:0 96:1 97:1 98:1 99:1 100:1 101:1 102:1 103:1 104:1 105:1 106:0 107:0 108:0 109:0 110:0 111:0 112:0 113:0 114:0 115:0 116:1 117:1 118:1 119:1 120:1 121:1 122:1 123:1 124:1 125:1 126:0 127:0 128:1 129:0 130:0 131:0 132:1 133:1 134:0 135:0 136:1 137:1 138:1 139:1 140:1 141:1 142:1 143:1 144:1 145:1 146:0 147:0 148:1 149:0 150:0 151:0 152:0 153:1 154:1 155:1 156:1 157:1 158:1 159:1 160:1 161:1 162:1 163:1 164:1 165:1 166:0 167:0 168:0 169:0 170:0 171:0 172:0 173:0 174:1 175:1 176:1 177:1 178:1 179:1 180:1 181:1 182:1 183:1 184:1 185:1 186:0 187:0 188:0 189:0 190:0 191:0 192:0 193:0 194:0 195:1 196:1 197:1 198:1 199:1 200:1 201:1 202:1 203:1 204:1 205:1 206:0 207:0 208:0 209:0 210:0 211:0 212:0 213:0 214:0 215:0 216:1 217:1 218:1 219:1 220:1 221:1 222:1 223:1 224:1 225:1 226:0 227:0 228:0 229:1 230:1 231:1 232:1 233:0 234:0 235:0 236:1 237:1 238:1 239:1 240:1 241:1 242:1 243:1 244:1 245:1 246:1 247:1 248:1 249:1 250:1 251:1 252:1 253:0 254:0 255:0 256:1 257:1 258:1 259:1 260:1 261:1 262:1 263:1 264:1 265:1 266:0 267:1 268:1 269:1 270:1 271:1 272:1 273:0 274:0 275:1 276:1 277:1 278:1 279:1 280:1 281:1 282:1 283:1 284:1 285:0 286:0 287:0 288:1 289:1 290:1 291:1 292:0 293:0 294:0 295:1 296:1 297:1 298:1 299:1 300:1 301:1 302:1 303:1 304:1 305:1 306:0 307:0 308:0 309:0 310:0 311:0 312:0 313:0 314:1 315:1 316:1 317:1 318:1 319:1 320:1 321:1 322:1 323:1 324:1 325:1 326:1 327:0 328:0 329:0 330:0 331:0 332:0 333:1 334:1 335:1 336:1 337:1 338:1 339:1 340:1 341:1 342:1 343:1 344:1 345:1 346:1 347:1 348:0 349:0 350:0 351:0 352:1 353:1 354:1 355:1 356:1 357:1 358:1 359:1 360:1 361:1 362:1 363:1 364:1 365:1 366:1 367:1 368:1 369:1 370:0 371:0 372:1 373:1 374:1 375:1 376:1 377:1 378:1 379:1 380:1 381:1 382:1 383:1 384:1 385:1 386:1 387:1 388:1 389:1 390:1 391:1 392:1 393:1 394:1 395:1 396:1 397:1 398:1 399:1 
0 0 0 0 0 0 0 0 0.9779311339512962 0:1 1:1 2:1 3:1 4:1 5:1 6:1 7:1 8:1 9:1 10:1 11:1 12:1 13:1 14:1 15:1 16:1 17:1 18:1 19:1 20:1 21:1 22:1 23:1 24:1 25:1 26:1 27:1 28:1 29:1 30:1 31:1 32:1 33:1 34:1 35:1 36:1 37:1 38:1 39:1 40:1 41:1 42:1 43:1 44:1 45:1 46:1 47:1 48:1 49:1 50:0 51:0 52:1 53:1 54:1 55:1 56:1 57:1 58:1 59:1 60:1 61:1 62:1 63:1 64:1 65:1 66:1 67:1 68:1 69:1 70:0 71:0 72:0 73:0 74:1 75:1 76:1 77:1 78:1 79:1 80:1 81:1 82:1 83:1 84:1 85:1 86:1 87:1 88:1 89:0 90:0 91:0 92:0 93:0 94:0 95:0 96:0 97:1 98:1 99:1 100:1 101:1 102:1 103:1 104:1 105:1 106:1 107:1 108:1 109:0 110:0 111:1 112:1 113:1 114:0 115:0 116:0 117:0 118:1 119:1 120:1 121:1 122:1 123:1 124:1 125:1 126:1 127:1 128:0 129:0 130:0 131:1 132:1 133:1 134:1 135:1 136:0 137:0 138:1 139:1 140:1 141:1 142:1 143:1 144:1 145:1 146:1 147:0 148:0 149:0 150:1 151:1 152:1 153:1 154:1 155:1 156:1 157:1 158:1 159:1 160:1 161:1 162:1 163:1 164:1 165:1 166:1 167:0 168:0 169:0 170:0 171:0 172:0 173:1 174:1 175:1 176:1 177:1 178:1 179:1 180:1 181:1 182:1 183:1 184:1 185:1 186:0 187:0 188:0 189:0 190:0 191:0 192:0 193:0 194:0 195:1 196:1 197:1 198:1 199:1 200:1 201:1 202:1 203:1 204:1 205:1 206:0 207:0 208:1 209:1 210:1 211:1 212:1 213:0 214:0 215:0 216:1 217:1 218:1 219:1 220:1 221:1 222:1 223:1 224:1 225:1 226:1 227:1 228:1 229:1 230:1 231:1 232:1 233:1 234:0 235:0 236:1 237:1 238:1 239:1 240:1 241:1 242:1 243:1 244:1 245:1 246:1 247:1 248:1 249:1 250:1 251:1 252:1 253:1 254:0 255:0 256:1 257:1 258:1 259:1 260:1 261:1 262:1 263:1 264:1 265:1 266:1 267:1 268:1 269:1 270:1 271:1 272:1 273:1 274:0 275:0 276:1 277:1 278:1 279:1 280:1 281:1 282:1 283:1 284:0 285:0 286:1 287:1 288:1 289:1 290:1 291:1 292:1 293:1 294:0 295:0 296:1 297:1 298:1 299:1 300:1 301:1 302:1 303:1 304:0 305:0 306:1 307:1 308:1 309:1 310:1 311:1 312:1 313:1 314:0 315:0 316:1 317:1 318:1 319:1 320:1 321:1 322:1 323:1 324:0 325:0 326:0 327:1 328:1 329:1 330:1 331:1 332:0 333:0 334:0 335:1 336:1 337:1 338:1 339:1 340:1 341:1 342:1 343:1 344:1 345:0 346:0 347:0 348:0 349:1 350:0 351:0 352:0 353:0 354:1 355:1 356:1 357:1 358:1 359:1 360:1 361:1 362:1 363:1 364:1 365:1 366:1 367:0 368:0 369:0 370:0 371:0 372:0 373:1 374:1 375:1 376:1 377:1 378:1 379:1 380:1 381:1 382:1 383:1 384:1 385:1 386:1 387:1 388:1 389:1 390:1 391:1 392:1 393:1 394:1 395:1 396:1 397:1 398:1 399:1 
0 0 0 0 0 0 0 0.6252597063700641 0 0:1 1:1 2:1 3:1 4:1 5:1 6:1 7:1 8:1 9:1 10:1 11:1 12:1 13:1 14:1 15:1 16:1 17:1 18:1 19:1 20:1 21:1 22:1 23:1 24:1 25:1 26:1 27:1 28:1 29:1 30:1 31:1 32:1 33:1 34:1 35:1 36:1 37:1 38:1 39:1 40:1 41:1 42:1 43:1 44:1 45:1 46:1 47:1 48:1 49:1 50:1 51:1 52:1 53:1 54:1 55:1 56:1 57:1 58:1 59:1 60:1 61:1 62:1 63:1 64:1 65:1 66:1 67:1 68:1 69:1 70:1 71:1 72:1 73:1 74:1 75:1 76:1 77:1 78:1 79:1 80:1 81:1 82:1 83:1 84:1 85:1 86:1 87:0 88:0 89:1 90:0 91:1 92:1 93:1 94:1 95:1 96:1 97:1 98:1 99:1 100:1 101:1 102:1 103:1 104:1 105:1 106:1 107:0 108:0 109:0 110:0 111:0 112:0 113:0 114:0 115:1 116:1 117:1 118:1 119:1 120:1 121:1 122:1 123:1 124:1 125:1 126:1 127:0 128:0 129:1 130:1 131:1 132:1 133:1 134:1 135:1 136:1 137:1 138:1 139:1 140:1 141:1 142:1 143:1 144:1 145:1 146:1 147:0 148:0 149:1 150:1 151:0 152:1 153:1 154:1 155:1 156:1 157:1 158:1 159:1 160:1 161:1 162:1 163:1 164:1 165:1 166:1 167:0 168:0 169:0 170:0 171:0 172:0 173:1 174:1 175:1 176:1 177:1 178:1 179:1 180:1 181:1 182:1 183:1 184:1 185:1 186:1 187:0 188:0 189:1 190:1 191:0 192:0 193:0 194:1 195:1 196:1 197:1 198:1 199:1 200:1 201:1 202:1 203:1 204:1 205:1 206:1 207:0 208:1 209:1 210:1 211:1 212:0 213:0 214:1 215:1 216:1 217:1 218:1 219:1 220:1 221:1 222:1 223:1 224:1 225:1 226:1 227:1 228:1 229:1 230:1 231:1 232:0 233:0 234:1 235:1 236:1 237:1 238:1 239:1 240:1 241:1 242:1 243:1 244:1 245:1 246:1 247:1 248:1 249:1 250:1 251:1 252:0 253:0 254:1 255:1 256:1 257:1 258:1 259:1 260:1 261:1 262:1 263:1 264:1 265:1 266:1 267:1 268:1 269:1 270:1 271:1 272:0 273:0 274:1 275:1 276:1 277:1 278:1 279:1 280:1 281:1 282:1 283:1 284:1 285:1 286:1 287:0 288:1 289:1 290:1 291:0 292:0 293:0 294:1 295:1 296:1 297:1 298:1 299:1 300:1 301:1 302:1 303:1 304:1 305:1 306:1 307:0 308:0 309:0 310:0 311:0 312:0 313:1 314:1 315:1 316:1 317:1 318:1 319:1 320:1 321:1 322:1 323:1 324:1 325:1 326:1 327:0 328:0 329:0 330:0 331:0 332:1 333:1 334:1 335:1 336:1 337:1 338:1 339:1 340:1 341:1 342:1 343:1 344:1 345:1 346:1 347:1 348:1 349:1 350:1 351:1 352:1 353:1 354:1 355:1 356:1 357:1 358:1 359:1 360:1 361:1 362:1 363:1 364:1 365:1 366:1 367:1 368:1 369:1 370:1 371:1 372:1 373:1 374:1 375:1 376:1 377:1 378:1 379:1 380:1 381:1 382:1 383:1 384:1 385:1 386:1 387:1 388:1 389:1 390:1 391:1 392:1 393:1 394:1 395:1 396:1 397:1 398:1 399:1 
0 0 0 4.273353283554807 2.506746442722124 0 0.5417967123206648 0 0 0:1 1:1 2:1 3:1 4:1 5:1 6:1 7:1 8:1 9:1 10:1 11:1 12:1 13:1 14:1 15:1 16:1 17:1 18:1 19:1 20:1 21:1 22:1 23:1 24:1 25:1 26:1 27:1 28:1 29:1 30:1 31:1 32:1 33:1 34:1 35:1 36:1 37:1 38:1 39:1 40:1 41:1 42:1 43:1 44:1 45:1 46:1 47:1 48:1 49:1 50:1 51:1 52:1 53:1 54:1 55:1 56:1 57:1 58:1 59:1 60:1 61:1 62:1 63:1 64:1 65:1 66:1 67:1 68:1 69:1 70:0 71:0 72:1 73:1 74:1 75:1 76:1 77:1 78:1 79:1 80:1 81:1 82:1 83:1 84:1 85:1 86:1 87:1 88:1 89:0 90:0 91:0 92:1 93:1 94:1 95:1 96:1 97:1 98:1 99:1 100:1 101:1 102:1 103:1 104:1 105:1 106:1 107:0 108:0 109:0 110:0 111:1 112:1 113:1 114:1 115:1 116:1 117:1 118:1 119:1 120:1 121:1 122:1 123:1 124:1 125:0 126:0 127:0 128:0 129:0 130:1 131:1 132:1 133:1 134:1 135:1 136:1 137:1 138:1 139:1 140:1 141:1 142:1 143:1 144:0 145:0 146:0 147:0 148:1 149:0 150:0 151:0 152:0 153:1 154:1 155:1 156:1 157:1 158:1 159:1 160:1 161:1 162:1 163:1 164:1 165:0 166:0 167:1 168:0 169:0 170:0 171:0 172:0 173:0 174:1 175:1 176:1 177:1 178:1 179:1 180:1 181:1 182:1 183:1 184:1 185:1 186:0 187:0 188:0 189:0 190:1 191:1 192:0 193:0 194:0 195:1 196:1 197:1 198:1 199:1 200:1 201:1 202:1 203:1 204:1 205:1 206:0 207:0 208:0 209:1 210:1 211:0 212:0 213:0 214:0 215:1 216:1 217:1 218:1 219:1 220:1 221:1 222:1 223:1 224:1 225:1 226:1 227:0 228:0 229:1 230:1 231:1 232:1 233:0 234:0 235:0 236:1 237:1 238:1 239:1 240:1 241:1 242:1 243:1 244:1 245:1 246:1 247:0 248:0 249:1 250:1 251:1 252:1 253:0 254:0 255:0 256:0 257:1 258:1 259:1 260:1 261:1 262:1 263:1 264:1 265:1 266:1 267:1 268:1 269:0 270:1 271:1 272:1 273:0 274:0 275:1 276:1 277:1 278:1 279:1 280:1 281:1 282:1 283:1 284:1 285:1 286:1 287:1 288:1 289:0 290:0 291:0 292:0 293:0 294:0 295:1 296:1 297:1 298:1 299:1 300:1 301:1 302:1 303:1 304:1 305:1 306:1 307:1 308:1 309:0 310:0 311:0 312:0 313:0 314:1 315:1 316:1 317:1 318:1 319:1 320:1 321:1 322:1 323:1 324:1 325:1 326:1 327:1 328:1 329:1 330:1 331:0 332:1 333:1 334:0 335:1 336:1 337:1 338:1 339:1 340:1 341:1 342:1 343:1 344:1 345:1 346:1 347:1 348:1 349:1 350:1 351:0 352:0 353:0 354:0 355:1 356:1 357:1 358:1 359:1 360:1 361:1 362:1 363:1 364:1 365:1 366:1 367:1 368:1 369:1 370:1 371:1 372:1 373:1 374:1 375:1 376:1 377:1 378:1 379:1 380:1 381:1 382:1 383:1 384:1 385:1 386:1 387:1 388:1 389:1 390:1 391:1 392:1 393:1 394:1 395:1 396:1 397:1 398:1 399:1 
0.1050396117954343 0 0 0 0 5.654126541801321 0 0 0 0:1 1:1 2:1 3:1 4:1 5:1 6:1 7:1 8:1 9:1 10:1 11:1 12:1 13:1 14:1 15:1 16:1 17:1 18:1 19:1 20:1 21:1 22:1 23:1 24:1 25:1 26:1 27:1 28:1 29:1 30:1 31:1 32:1 33:1 34:1 35:1 36:1 37:1 38:1 39:1 40:1 41:1 42:1 43:1 44:1 45:1 46:1 47:1 48:1 49:1 50:0 51:0 52:0 53:0 54:1 55:1 56:1 57:1 58:1 59:1 60:1 61:1 62:1 63:1 64:1 65:0 66:0 67:0 68:0 69:0 70:0 71:0 72:0 73:0 74:1 75:1 76:1 77:1 78:1 79:1 80:1 81:1 82:1 83:1 84:1 85:0 86:0 87:0 88:0 89:0 90:1 91:1 92:1 93:1 94:1 95:1 96:1 97:1 98:1 99:1 100:1 101:1 102:1 103:1 104:1 105:0 106:0 107:1 108:1 109:1 110:1 111:1 112:1 113:1 114:1 115:1 116:1 117:1 118:1 119:1 120:1 121:1 122:1 123:1 124:1 125:0 126:0 127:1 128:1 129:1 130:1 131:0 132:0 133:1 134:1 135:1 136:1 137:1 138:1 139:1 140:1 141:1 142:1 143:1 144:1 145:0 146:0 147:0 148:0 149:0 150:0 151:0 152:0 153:0 154:0 155:1 156:1 157:1 158:1 159:1 160:1 161:1 162:1 163:1 164:1 165:0 166:0 167:0 168:0 169:0 170:0 171:1 172:1 173:0 174:0 175:0 176:1 177:1 178:1 179:1 180:1 181:1 182:1 183:1 184:1 185:0 186:0 187:0 188:0 189:1 190:1 191:1 192:1 193:1 194:0 195:0 196:1 197:1 198:1 199:1 200:1 201:1 202:1 203:1 204:1 205:0 206:0 207:0 208:1 209:1 210:1 211:1 212:1 213:1 214:0 215:0 216:1 217:1 218:1 219:1 220:1 221:1 222:1 223:1 224:1 225:1 226:0 227:1 228:1 229:1 230:1 231:1 232:1 233:1 234:0 235:0 236:1 237:1 238:1 239:1 240:1 241:1 242:1 243:1 244:1 245:1 246:1 247:1 248:1 249:1 250:1 251:1 252:1 253:1 254:0 255:0 256:1 257:1 258:1 259:1 260:1 261:1 262:1 263:1 264:1 265:1 266:1 267:1 268:1 269:1 270:1 271:1 272:1 273:1 274:0 275:0 276:1 277:1 278:1 279:1 280:1 281:1 282:1 283:1 284:1 285:1 286:1 287:1 288:1 289:1 290:1 291:1 292:1 293:1 294:0 295:0 296:1 297:1 298:1 299:1 300:1 301:1 302:1 303:1 304:1 305:1 306:0 307:0 308:1 309:1 310:1 311:1 312:1 313:0 314:0 315:0 316:1 317:1 318:1 319:1 320:1 321:1 322:1 323:1 324:1 325:1 326:0 327:0 328:0 329:1 330:1 331:0 332:0 333:0 334:0 335:1 336:1 337:1 338:1 339:1 340:1 341:1 342:1 343:1 344:1 345:1 346:1 347:0 348:0 349:0 350:0 351:0 352:0 353:0 354:1 355:1 356:1 357:1 358:1 359:1 360:1 361:1 362:1 363:1 364:1 365:1 366:1 367:1 368:1 369:0 370:1 371:1 372:1 373:1 374:1 375:1 376:1 377:1 378:1 379:1 380:1 381:1 382:1 383:1 384:1 385:1 386:1 387:1 388:1 389:1 390:1 391:1 392:1 393:1 394:1 395:1 396:1 397:1 398:1 399:1 
2.406320859395152 2.740621638526402 0 0.5925690707139306 0 0 0 0 0 0:1 1:1 2:1 3:1 4:1 5:1 6:1 7:1 8:1 9:1 10:1 11:1 12:1 13:1 14:1 15:1 16:1 17:1 18:1 19:1 20:1 21:1 22:1 23:1 24:1 25:1 26:1 27:1 28:1 29:1 30:1 31:1 32:1 33:1 34:1 35:1 36:1 37:1 38:1 39:1 40:1 41:1 42:1 43:1 44:1 45:1 46:1 47:1 48:1 49:1 50:1 51:0 52:1 53:1 54:1 55:1 56:1 57:1 58:1 59:1 60:1 61:1 62:1 63:1 64:1 65:1 66:1 67:1 68:1 69:0 70:0 71:0 72:1 73:1 74:1 75:1 76:1 77:1 78:1 79:1 80:1 81:1 82:1 83:1 84:1 85:1 86:1 87:0 88:0 89:0 90:0 91:1 92:1 93:1 94:1 95:1 96:1 97:1 98:1 99:1 100:1 101:1 102:1 103:1 104:1 105:1 106:0 107:0 108:0 109:1 110:1 111:1 112:1 113:1 114:1 115:1 116:1 117:1 118:1 119:1 120:1 121:1 122:1 123:1 124:0 125:0 126:0 127:1 128:1 129:1 130:1 131:1 132:1 133:1 134:1 135:1 136:1 137:1 138:1 139:1 140:1 141:1 142:1 143:1 144:0 145:0 146:1 147:1 148:1 149:1 150:0 151:0 152:0 153:0 154:0 155:0 156:1 157:1 158:1 159:1 160:1 161:1 162:1 163:1 164:1 165:0 166:0 167:1 168:1 169:0 170:0 171:0 172:1 173:1 174:0 175:0 176:1 177:1 178:1 179:1 180:1 181:1 182:1 183:1 184:1 185:0 186:0 187:0 188:0 189:0 190:1 191:1 192:1 193:1 194:1 195:0 196:0 197:1 198:1 199:1 200:1 201:1 202:1 203:1 204:1 205:1 206:0 207:0 208:0 209:0 210:1 211:1 212:1 213:1 214:1 215:1 216:0 217:0 218:1 219:1 220:1 221:1 222:1 223:1 224:1 225:1 226:0 227:0 228:0 229:1 230:1 231:1 232:1 233:1 234:1 235:1 236:0 237:0 238:1 239:1 240:1 241:1 242:1 243:1 244:1 245:1 246:1 247:0 248:0 249:1 250:1 251:1 252:1 253:1 254:1 255:1 256:0 257:0 258:1 259:1 260:1 261:1 262:1 263:1 264:1 265:1 266:1 267:0 268:0 269:1 270:1 271:1 272:1 273:1 274:1 275:1 276:0 277:0 278:1 279:1 280:1 281:1 282:1 283:1 284:1 285:1 286:1 287:1 288:1 289:1 290:1 291:1 292:1 293:1 294:1 295:1 296:0 297:0 298:1 299:1 300:1 301:1 302:1 303:1 304:1 305:1 306:1 307:1 308:1 309:1 310:1 311:1 312:1 313:1 314:1 315:0 316:0 317:0 318:1 319:1 320:1 321:1 322:1 323:1 324:1 325:1 326:1 327:1 328:1 329:1 330:1 331:1 332:1 333:1 334:0 335:0 336:0 337:1 338:1 339:1 340:1 341:1 342:1 343:1 344:1 345:1 346:1 347:1 348:1 349:1 350:0 351:0 352:0 353:0 354:0 355:0 356:1 357:1 358:1 359:1 360:1 361:1 362:1 363:1 364:1 365:1 366:1 367:1 368:1 369:1 370:1 371:0 372:0 373:0 374:1 375:1 376:1 377:1 378:1 379:1 380:1 381:1 382:1 383:1 384:1 385:1 386:1 387:1 388:1 389:1 390:1 391:1 392:1 393:1 394:1 395:1 396:1 397:1 398:1 399:1 
0 0 0 0 1.452327116182432 0 0 0 0 0:1 1:1 2:1 3:1 4:1 5:1 6:1 7:1 8:1 9:1 10:1 11:1 12:1 13:1 14:1 15:1 16:1 17:1 18:1 19:1 20:1 21:1 22:1 23:1 24:1 25:1 26:1 27:1 28:1 29:1 30:1 31:1 32:1 33:1 34:1 35:1 36:1 37:1 38:1 39:1 40:1 41:1 42:1 43:1 44:1 45:1 46:1 47:1 48:1 49:1 50:1 51:1 52:1 53:1 54:1 55:1 56:1 57:1 58:1 59:1 60:1 61:1 62:1 63:1 64:1 65:1 66:1 67:1 68:1 69:0 70:1 71:1 72:1 73:1 74:1 75:1 76:1 77:1 78:1 79:1 80:1 81:1 82:1 83:1 84:1 85:1 86:1 87:1 88:1 89:0 90:0 91:0 92:1 93:1 94:1 95:1 96:1 97:1 98:1 99:1 100:1 101:1 102:1 103:1 104:1 105:1 106:1 107:1 108:0 109:0 110:0 111:0 112:0 113:0 114:0 115:1 116:1 117:1 118:1 119:1 120:1 121:1 122:1 123:1 124:1 125:1 126:1 127:1 128:0 129:0 130:1 131:1 132:0 133:0 134:0 135:0 136:0 137:1 138:1 139:1 140:1 141:1 142:1 143:1 144:1 145:1 146:1 147:0 148:0 149:1 150:1 151:1 152:1 153:1 154:0 155:0 156:0 157:0 158:1 159:1 160:1 161:1 162:1 163:1 164:1 165:1 166:0 167:0 168:0 169:0 170:0 171:1 172:1 173:1 174:1 175:1 176:0 177:1 178:1 179:1 180:1 181:1 182:1 183:1 184:1 185:1 186:0 187:0 188:0 189:0 190:0 191:0 192:0 193:1 194:1 195:1 196:1 197:1 198:1 199:1 200:1 201:1 202:1 203:1 204:1 205:1 206:0 207:0 208:0 209:1 210:0 211:0 212:0 213:0 214:1 215:1 216:1 217:1 218:1 219:1 220:1 221:1 222:1 223:1 224:1 225:1 226:1 227:1 228:1 229:1 230:1 231:1 232:0 233:0 234:0 235:1 236:1 237:1 238:1 239:1 240:1 241:1 242:1 243:1 244:1 245:0 246:1 247:1 248:1 249:1 250:1 251:1 252:1 253:0 254:0 255:1 256:1 257:1 258:1 259:1 260:1 261:1 262:1 263:1 264:0 265:0 266:1 267:1 268:1 269:1 270:1 271:1 272:1 273:0 274:0 275:1 276:1 277:1 278:1 279:1 280:1 281:1 282:1 283:1 284:0 285:0 286:1 287:1 288:1 289:1 290:1 291:1 292:0 293:0 294:0 295:1 296:1 297:1 298:1 299:1 300:1 301:1 302:1 303:1 304:0 305:0 306:0 307:0 308:1 309:1 310:1 311:0 312:0 313:0 314:1 315:1 316:1 317:1 318:1 319:1 320:1 321:1 322:1 323:1 324:1 325:1 326:0 327:0 328:0 329:0 330:0 331:0 332:0 333:1 334:1 335:1 336:1 337:1 338:1 339:1 340:1 341:1 342:1 343:1 344:1 345:1 346:1 347:0 348:0 349:0 350:0 351:0 352:1 353:1 354:1 355:1 356:1 357:1 358:1 359:1 360:1 361:1 362:1 363:1 364:1 365:1 366:1 367:1 368:1 369:1 370:1 371:1 372:1 373:1 374:1 375:1 376:1 377:1 378:1 379:1 380:1 381:1 382:1 383:1 384:1 385:1 386:1 387:1 388:1 389:1 390:1 391:1 392:1 393:1 394:1 395:1 396:1 397:1 398:1 399:1 
0 0 0 0.1419078320269688 0 0 0 0 0 0:1 1:1 2:1 3:1 4:1 5:1 6:1 7:1 8:1 9:1 10:1 11:1 12:1 13:1 14:1 15:1 16:1 17:1 18:1 19:1 20:1 21:1 22:1 23:1 24:1 25:1 26:1 27:1 28:1 29:1 30:1 31:1 32:1 33:1 34:1 35:1 36:1 37:1 38:1 39:1 40:1 41:1 42:1 43:1 44:1 45:1 46:1 47:1 48:1 49:1 50:0 51:1 52:1 53:1 54:1 55:1 56:1 57:1 58:1 59:1 60:1 61:1 62:1 63:1 64:1 65:1 66:1 67:0 68:0 69:0 70:0 71:0 72:0 73:0 74:0 75:0 76:1 77:1 78:1 79:1 80:1 81:1 82:1 83:1 84:1 85:1 86:1 87:0 88:0 89:0 90:0 91:0 92:0 93:0 94:0 95:0 96:1 97:1 98:1 99:1 100:1 101:1 102:1 103:1 104:1 105:1 106:1 107:0 108:0 109:1 110:1 111:1 112:1 113:1 114:1 115:1 116:1 117:1 118:1 119:1 120:1 121:1 122:1 123:1 124:1 125:1 126:1 127:0 128:0 129:1 130:1 131:1 132:1 133:1 134:1 135:1 136:1 137:1 138:1 139:1 140:1 141:1 142:1 143:1 144:1 145:1 146:1 147:0 148:0 149:1 150:1 151:1 152:1 153:1 154:1 155:1 156:1 157:1 158:1 159:1 160:1 161:1 162:1 163:1 164:1 165:1 166:0 167:0 168:0 169:0 170:0 171:0 172:0 173:0 174:1 175:1 176:1 177:1 178:1 179:1 180:1 181:1 182:1 183:1 184:1 185:1 186:0 187:0 188:0 189:0 190:0 191:0 192:0 193:0 194:0 195:0 196:1 197:1 198:1 199:1 200:1 201:1 202:1 203:1 204:1 205:1 206:0 207:0 208:0 209:1 210:1 211:1 212:1 213:1 214:0 215:0 216:1 217:1 218:1 219:1 220:1 221:1 222:1 223:1 224:1 225:1 226:0 227:0 228:1 229:1 230:1 231:1 232:1 233:1 234:0 235:0 236:1 237:1 238:1 239:1 240:1 241:1 242:1 243:1 244:1 245:1 246:1 247:1 248:1 249:1 250:1 251:1 252:1 253:1 254:1 255:0 256:0 257:1 258:1 259:1 260:1 261:1 262:1 263:1 264:1 265:1 266:1 267:1 268:1 269:1 270:1 271:1 272:1 273:1 274:1 275:0 276:0 277:1 278:1 279:1 280:1 281:1 282:1 283:1 284:1 285:1 286:1 287:1 288:1 289:1 290:1 291:1 292:1 293:1 294:0 295:0 296:1 297:1 298:1 299:1 300:1 301:1 302:1 303:1 304:1 305:1 306:0 307:1 308:1 309:1 310:1 311:1 312:1 313:1 314:0 315:0 316:1 317:1 318:1 319:1 320:1 321:1 322:1 323:1 324:1 325:0 326:0 327:0 328:1 329:1 330:1 331:1 332:1 333:0 334:0 335:0 336:1 337:1 338:1 339:1 340:1 341:1 342:1 343:1 344:1 345:1 346:0 347:0 348:0 349:1 350:0 351:1 352:0 353:0 354:0 355:1 356:1 357:1 358:1 359:1 360:1 361:1 362:1 363:1 364:1 365:1 366:1 367:0 368:0 369:0 370:0 371:0 372:0 373:0 374:1 375:1 376:1 377:1 378:1 379:1 380:1 381:1 382:1 383:1 384:1 385:1 386:1 387:1 388:1 389:0 390:0 391:0 392:1 393:1 394:1 395:1 396:1 397:1 398:1 399:1 
0 1.82576508138147 1.461915634382008 0 0 0 0 2.99325605003657 0 0:1 1:1 2:1 3:1 4:1 5:1 6:1 7:1 8:1 9:1 10:1 11:1 12:1 13:1 14:1 15:1 16:1 17:1 18:1 19:1 20:1 21:1 22:1 23:1 24:1 25:1 26:1 27:1 28:1 29:1 30:1 31:1 32:1 33:1 34:1 35:1 36:1 37:1 38:1 39:1 40:1 41:1 42:1 43:1 44:1 45:1 46:1 47:1 48:1 49:1 50:1 51:1 52:1 53:1 54:1 55:1 56:1 57:1 58:1 59:1 60:1 61:1 62:1 63:1 64:1 65:1 66:1 67:1 68:1 69:1 70:1 71:1 72:0 73:0 74:1 75:1 76:1 77:1 78:1 79:1 80:1 81:1 82:1 83:1 84:1 85:1 86:1 87:1 88:1 89:1 90:0 91:0 92:0 93:0 94:1 95:1 96:1 97:1 98:1 99:1 100:1 101:1 102:1 103:1 104:1 105:1 106:1 107:0 108:0 109:0 110:0 111:0 112:1 113:1 114:1 115:1 116:1 117:1 118:1 119:1 120:1 121:1 122:1 123:1 124:1 125:0 126:0 127:0 128:0 129:0 130:1 131:1 132:1 133:1 134:1 135:1 136:1 137:1 138:1 139:1 140:1 141:1 142:1 143:1 144:1 145:0 146:0 147:1 148:1 149:1 150:1 151:1 152:1 153:1 154:1 155:1 156:1 157:1 158:1 159:1 160:1 161:1 162:1 163:1 164:1 165:0 166:0 167:1 168:1 169:1 170:0 171:0 172:0 173:0 174:1 175:1 176:1 177:1 178:1 179:1 180:1 181:1 182:1 183:1 184:1 185:1 186:0 187:1 188:1 189:0 190:0 191:0 192:0 193:0 194:0 195:1 196:1 197:1 198:1 199:1 200:1 201:1 202:1 203:1 204:1 205:1 206:0 207:0 208:0 209:0 210:0 211:1 212:1 213:1 214:0 215:0 216:1 217:1 218:1 219:1 220:1 221:1 222:1 223:1 224:1 225:1 226:0 227:0 228:0 229:0 230:1 231:1 232:1 233:1 234:0 235:0 236:0 237:1 238:1 239:1 240:1 241:1 242:1 243:1 244:1 245:1 246:0 247:0 248:0 249:1 250:1 251:1 252:1 253:1 254:1 255:0 256:0 257:1 258:1 259:1 260:1 261:1 262:1 263:1 264:1 265:1 266:1 267:0 268:0 269:1 270:1 271:1 272:1 273:1 274:1 275:0 276:0 277:1 278:1 279:1 280:1 281:1 282:1 283:1 284:1 285:1 286:1 287:1 288:1 289:1 290:1 291:1 292:1 293:1 294:0 295:0 296:1 297:1 298:1 299:1 300:1 301:1 302:1 303:1 304:1 305:1 306:1 307:1 308:1 309:1 310:1 311:1 312:1 313:0 314:0 315:0 316:1 317:1 318:1 319:1 320:1 321:1 322:1 323:1 324:1 325:1 326:1 327:1 328:0 329:0 330:0 331:1 332:0 333:0 334:0 335:1 336:1 337:1 338:1 339:1 340:1 341:1 342:1 343:1 344:1 345:1 346:1 347:1 348:1 349:0 350:0 351:0 352:0 353:0 354:1 355:1 356:1 357:1 358:1 359:1 360:1 361:1 362:1 363:1 364:1 365:1 366:1 367:1 368:1 369:1 370:1 371:0 372:1 373:1 374:1 375:1 376:1 377:1 378:1 379:1 380:1 381:1 382:1 383:1 384:1 385:1 386:1 387:1 388:1 389:1 390:1 391:1 392:1 393:1 394:1 395:1 396:1 397:1 398:1 399:1 
1.57051781137365 0 0 0 0 0 0.7229183917795887 0 0 0:1 1:1 2:1 3:1 4:1 5:1 6:1 7:1 8:1 9:1 10:1 11:1 12:1 13:1 14:1 15:1 16:1 17:1 18:1 19:1 20:1 21:1 22:1 23:1 24:1 25:1 26:1 27:1 28:1 29:1 30:1 31:1 32:1 33:1 34:1 35:1 36:1 37:1 38:1 39:1 40:1 41:1 42:1 43:1 44:1 45:1 46:0 47:0 48:0 49:0 50:0 51:0 52:0 53:0 54:0 55:1 56:1 57:1 58:1 59:1 60:1 61:1 62:1 63:1 64:1 65:1 66:0 67:0 68:0 69:0 70:0 71:0 72:0 73:0 74:0 75:1 76:1 77:1 78:1 79:1 80:1 81:1 82:1 83:1 84:1 85:1 86:0 87:0 88:0 89:0 90:0 91:0 92:0 93:0 94:0 95:1 96:1 97:1 98:1 99:1 100:1 101:1 102:1 103:1 104:1 105:1 106:0 107:0 108:1 109:1 110:1 111:0 112:1 113:0 114:1 115:1 116:1 117:1 118:1 119:1 120:1 121:1 122:1 123:1 124:1 125:1 126:0 127:0 128:0 129:0 130:0 131:0 132:0 133:1 134:1 135:1 136:1 137:1 138:1 139:1 140:1 141:1 142:1 143:1 144:1 145:0 146:0 147:0 148:0 149:0 150:0 151:0 152:0 153:0 154:1 155:1 156:1 157:1 158:1 159:1 160:1 161:1 162:1 163:1 164:1 165:0 166:0 167:0 168:0 169:0 170:0 171:0 172:0 173:0 174:0 175:0 176:1 177:1 178:1 179:1 180:1 181:1 182:1 183:1 184:1 185:0 186:0 187:0 188:0 189:0 190:1 191:1 192:1 193:0 194:0 195:0 196:1 197:1 198:1 199:1 200:1 201:1 202:1 203:1 204:1 205:0 206:0 207:0 208:1 209:1 210:1 211:1 212:0 213:0 214:0 215:0 216:1 217:1 218:1 219:1 220:1 221:1 222:1 223:1 224:1 225:1 226:1 227:1 228:1 229:1 230:1 231:1 232:1 233:1 234:0 235:0 236:1 237:1 238:1 239:1 240:1 241:1 242:1 243:1 244:1 245:1 246:1 247:1 248:1 249:1 250:1 251:1 252:1 253:1 254:0 255:0 256:0 257:1 258:1 259:1 260:1 261:1 262:1 263:1 264:1 265:1 266:1 267:1 268:1 269:1 270:1 271:1 272:1 273:1 274:0 275:0 276:1 277:1 278:1 279:1 280:1 281:1 282:1 283:1 284:1 285:1 286:1 287:1 288:1 289:1 290:1 291:1 292:1 293:0 294:0 295:0 296:1 297:1 298:1 299:1 300:1 301:1 302:1 303:1 304:1 305:0 306:0 307:1 308:1 309:1 310:1 311:1 312:1 313:0 314:0 315:1 316:1 317:1 318:1 319:1 320:1 321:1 322:1 323:1 324:1 325:0 326:0 327:0 328:1 329:1 330:1 331:0 332:0 333:0 334:0 335:1 336:1 337:1 338:1 339:1 340:1 341:1 342:1 343:1 344:1 345:1 346:0 347:0 348:0 349:0 350:0 351:0 352:0 353:0 354:1 355:1 356:1 357:1 358:1 359:1 360:1 361:1 362:1 363:1 364:1 365:1 366:1 367:0 368:0 369:0 370:0 371:0 372:0 373:1 374:1 375:1 376:1 377:1 378:1 379:1 380:1 381:1 382:1 383:1 384:1 385:1 386:1 387:1 388:1 389:1 390:1 391:1 392:0 393:1 394:1 395:1 396:1 397:1 398:1 399:1 
0 0.1286094749450492 0.3732795623510461 0 0 0 0 0 0 0:1 1:1 2:1 3:1 4:1 5:1 6:1 7:1 8:1 9:1 10:1 11:1 12:1 13:1 14:1 15:1 16:1 17:1 18:1 19:1 20:1 21:1 22:1 23:1 24:1 25:1 26:1 27:1 28:1 29:1 30:1 31:1 32:1 33:1 34:1 35:1 36:1 37:1 38:1 39:1 40:1 41:1 42:1 43:1 44:1 45:1 46:1 47:1 48:1 49:1 50:1 51:1 52:1 53:1 54:1 55:1 56:1 57:1 58:1 59:1 60:1 61:1 62:1 63:1 64:1 65:1 66:1 67:1 68:1 69:1 70:1 71:1 72:1 73:1 74:1 75:1 76:1 77:1 78:1 79:1 80:1 81:1 82:1 83:1 84:1 85:1 86:1 87:1 88:1 89:0 90:0 91:1 92:1 93:1 94:1 95:1 96:1 97:1 98:1 99:1 100:1 101:1 102:1 103:1 104:1 105:1 106:1 107:1 108:1 109:0 110:0 111:0 112:0 113:0 114:1 115:1 116:1 117:1 118:1 119:1 120:1 121:1 122:1 123:1 124:1 125:1 126:1 127:1 128:0 129:0 130:1 131:1 132:0 133:0 134:0 135:0 136:1 137:1 138:1 139:1 140:1 141:1 142:1 143:1 144:1 145:1 146:1 147:1 148:0 149:1 150:1 151:1 152:1 153:1 154:1 155:1 156:1 157:1 158:1 159:1 160:1 161:1 162:1 163:1 164:1 165:1 166:1 167:1 168:0 169:0 170:0 171:0 172:0 173:1 174:1 175:1 176:1 177:1 178:1 179:1 180:1 181:1 182:1 183:1 184:1 185:1 186:1 187:0 188:0 189:0 190:1 191:0 192:0 193:0 194:1 195:1 196:1 197:1 198:1 199:1 200:1 201:1 202:1 203:1 204:1 205:1 206:1 207:1 208:1 209:1 210:1 211:1 212:0 213:0 214:1 215:1 216:1 217:1 218:1 219:1 220:1 221:1 222:1 223:1 224:1 225:1 226:1 227:1 228:1 229:1 230:1 231:1 232:1 233:0 234:1 235:1 236:1 237:1 238:1 239:1 240:1 241:1 242:1 243:1 244:1 245:1 246:1 247:1 248:1 249:1 250:1 251:1 252:0 253:0 254:1 255:1 256:1 257:1 258:1 259:1 260:1 261:1 262:1 263:1 264:1 265:1 266:1 267:1 268:1 269:1 270:1 271:1 272:0 273:0 274:1 275:1 276:1 277:1 278:1 279:1 280:1 281:1 282:1 283:1 284:1 285:1 286:0 287:1 288:1 289:1 290:1 291:1 292:0 293:1 294:1 295:1 296:1 297:1 298:1 299:1 300:1 301:1 302:1 303:1 304:1 305:1 306:0 307:0 308:0 309:0 310:0 311:0 312:0 313:1 314:1 315:1 316:1 317:1 318:1 319:1 320:1 321:1 322:1 323:1 324:1 325:1 326:1 327:0 328:0 329:0 330:0 331:0 332:1 333:1 334:1 335:1 336:1 337:1 338:1 339:1 340:1 341:1 342:1 343:1 344:1 345:1 346:1 347:1 348:1 349:1 350:1 351:1 352:1 353:1 354:1 355:1 356:1 357:1 358:1 359:1 360:1 361:1 362:1 363:1 364:1 365:1 366:1 367:1 368:1 369:1 370:1 371:1 372:1 373:1 374:1 375:1 376:1 377:1 378:1 379:1 380:1 381:1 382:1 383:1 384:1 385:1 386:1 387:1 388:1 389:1 390:1 391:1 392:1 393:1 394:1 395:1 396:1 397:1 398:1 399:1 
0 0 0 2.152528471443724 6.883626945575731 0 0 0 0 0:1 1:1 2:1 3:1 4:1 5:1 6:1 7:1 8:1 9:1 10:1 11:1 12:1 13:1 14:1 15:1 16:1 17:1 18:1 19:1 20:1 21:1 22:1 23:1 24:1 25:1 26:1 27:1 28:1 29:1 30:1 31:1 32:1 33:1 34:1 35:1 36:1 37:1 38:1 39:1 40:1 41:1 42:1 43:1 44:1 45:1 46:0 47:0 48:0 49:0 50:0 51:0 52:0 53:0 54:0 55:0 56:1 57:1 58:1 59:1 60:1 61:1 62:1 63:1 64:1 65:1 66:0 67:0 68:0 69:0 70:0 71:0 72:0 73:0 74:0 75:0 76:1 77:1 78:1 79:1 80:1 81:1 82:1 83:1 84:1 85:1 86:0 87:0 88:0 89:0 90:0 91:0 92:0 93:0 94:0 95:0 96:0 97:1 98:1 99:1 100:1 101:1 102:1 103:1 104:1 105:1 106:0 107:0 108:0 109:0 110:1 111:1 112:1 113:0 114:0 115:0 116:0 117:1 118:1 119:1 120:1 121:1 122:1 123:1 124:1 125:0 126:0 127:0 128:0 129:0 130:1 131:1 132:1 133:1 134:1 135:1 136:1 137:1 138:1 139:1 140:1 141:1 142:1 143:1 144:1 145:0 146:0 147:0 148:0 149:0 150:0 151:0 152:0 153:1 154:1 155:1 156:1 157:1 158:1 159:1 160:1 161:1 162:1 163:1 164:1 165:0 166:0 167:0 168:0 169:0 170:0 171:0 172:0 173:0 174:0 175:1 176:1 177:1 178:1 179:1 180:1 181:1 182:1 183:1 184:1 185:0 186:0 187:0 188:0 189:1 190:0 191:0 192:0 193:0 194:0 195:1 196:1 197:1 198:1 199:1 200:1 201:1 202:1 203:1 204:1 205:0 206:0 207:0 208:0 209:0 210:0 211:0 212:0 213:0 214:0 215:0 216:1 217:1 218:1 219:1 220:1 221:1 222:1 223:1 224:1 225:1 226:1 227:0 228:0 229:0 230:1 231:1 232:1 233:1 234:0 235:0 236:0 237:1 238:1 239:1 240:1 241:1 242:1 243:1 244:1 245:1 246:1 247:0 248:0 249:1 250:1 251:1 252:1 253:1 254:0 255:0 256:0 257:1 258:1 259:1 260:1 261:1 262:1 263:1 264:1 265:1 266:1 267:1 268:1 269:1 270:1 271:1 272:1 273:1 274:0 275:0 276:0 277:1 278:1 279:1 280:1 281:1 282:1 283:1 284:1 285:0 286:1 287:1 288:1 289:1 290:1 291:1 292:1 293:0 294:0 295:0 296:0 297:1 298:1 299:1 300:1 301:1 302:1 303:1 304:0 305:0 306:0 307:1 308:1 309:1 310:1 311:1 312:0 313:0 314:0 315:1 316:0 317:1 318:1 319:1 320:1 321:1 322:1 323:1 324:1 325:0 326:0 327:0 328:1 329:1 330:1 331:0 332:0 333:0 334:1 335:0 336:0 337:1 338:1 339:1 340:1 341:1 342:1 343:1 344:1 345:0 346:0 347:0 348:0 349:0 350:0 351:0 352:0 353:1 354:1 355:0 356:0 357:1 358:1 359:1 360:1 361:1 362:1 363:1 364:1 365:1 366:1 367:0 368:0 369:0 370:0 371:0 372:1 373:0 374:0 375:0 376:1 377:1 378:1 379:1 380:1 381:1 382:1 383:1 384:1 385:1 386:1 387:1 388:0 389:0 390:0 391:0 392:0 393:0 394:0 395:1 396:1 397:1 398:1 399:1 
2.293687251151398 2.880389219067412 0.7863570891934859 0 0 0 0 8.730754527101038 0 0:1 1:1 2:1 3:1 4:1 5:1 6:1 7:1 8:1 9:1 10:1 11:1 12:1 13:1 14:1 15:1 16:1 17:1 18:1 19:1 20:1 21:1 22:1 23:1 24:1 25:1 26:1 27:1 28:1 29:1 30:1 31:1 32:1 33:1 34:1 35:1 36:1 37:1 38:1 39:1 40:1 41:1 42:1 43:1 44:1 45:1 46:1 47:1 48:1 49:1 50:1 51:1 52:1 53:1 54:1 55:1 56:1 57:1 58:1 59:1 60:1 61:1 62:1 63:1 64:1 65:1 66:1 67:1 68:1 69:1 70:1 71:1 72:1 73:1 74:1 75:1 76:1 77:1 78:1 79:1 80:1 81:1 82:1 83:1 84:1 85:1 86:1 87:1 88:0 89:0 90:0 91:0 92:0 93:0 94:0 95:1 96:1 97:1 98:1 99:1 100:1 101:1 102:1 103:1 104:1 105:1 106:1 107:1 108:0 109:0 110:0 111:0 112:0 113:0 114:0 115:1 116:1 117:1 118:1 119:1 120:1 121:1 122:1 123:1 124:1 125:1 126:1 127:1 128:0 129:1 130:1 131:1 132:1 133:1 134:1 135:1 136:1 137:1 138:1 139:1 140:1 141:1 142:1 143:1 144:1 145:1 146:1 147:1 148:0 149:1 150:0 151:0 152:0 153:1 154:1 155:1 156:1 157:1 158:1 159:1 160:1 161:1 162:1 163:1 164:1 165:1 166:1 167:1 168:0 169:0 170:0 171:0 172:0 173:0 174:1 175:1 176:1 177:1 178:1 179:1 180:1 181:1 182:1 183:1 184:1 185:1 186:1 187:0 188:0 189:0 190:1 191:1 192:1 193:0 194:0 195:1 196:1 197:1 198:1 199:1 200:1 201:1 202:1 203:1 204:1 205:1 206:1 207:1 208:0 209:1 210:1 211:1 212:1 213:0 214:0 215:1 216:1 217:1 218:1 219:1 220:1 221:1 222:1 223:1 224:1 225:1 226:1 227:1 228:1 229:1 230:1 231:1 232:1 233:0 234:0 235:1 236:1 237:1 238:1 239:1 240:1 241:1 242:1 243:1 244:1 245:1 246:1 247:1 248:1 249:1 250:1 251:1 252:1 253:0 254:0 255:1 256:1 257:1 258:1 259:1 260:1 261:1 262:1 263:1 264:1 265:1 266:1 267:1 268:1 269:1 270:1 271:1 272:1 273:0 274:0 275:1 276:1 277:1 278:1 279:1 280:1 281:1 282:1 283:1 284:1 285:1 286:1 287:1 288:0 289:1 290:1 291:1 292:0 293:0 294:1 295:1 296:1 297:1 298:1 299:1 300:1 301:1 302:1 303:1 304:1 305:1 306:1 307:1 308:0 309:0 310:0 311:0 312:0 313:0 314:1 315:1 316:1 317:1 318:1 319:1 320:1 321:1 322:1 323:1 324:1 325:1 326:1 327:1 328:1 329:0 330:0 331:0 332:0 333:1 334:1 335:1 336:1 337:1 338:1 339:1 340:1 341:1 342:1 343:1 344:1 345:1 346:1 347:1 348:1 349:1 350:1 351:1 352:1 353:1 354:1 355:1 356:1 357:1 358:1 359:1 360:1 361:1 362:1 363:1 364:1 365:1 366:1 367:1 368:1 369:1 370:1 371:1 372:1 373:1 374:1 375:1 376:1 377:1 378:1 379:1 380:1 381:1 382:1 383:1 384:1 385:1 386:1 387:1 388:1 389:1 390:1 391:1 392:1 393:1 394:1 395:1 396:1 397:1 398:1 399:1 
1.83318145599126 0 0.1848985593846295 0 0 0 0 0 0 0:1 1:1 2:1 3:1 4:1 5:1 6:1 7:1 8:1 9:1 10:1 11:1 12:1 13:1 14:1 15:1 16:1 17:1 18:1 19:1 20:1 21:1 22:1 23:1 24:1 25:1 26:1 27:1 28:1 29:1 30:1 31:1 32:1 33:1 34:1 35:1 36:1 37:1 38:1 39:1 40:1 41:1 42:1 43:1 44:1 45:1 46:1 47:1 48:1 49:1 50:1 51:0 52:0 53:1 54:1 55:1 56:1 57:1 58:1 59:1 60:1 61:1 62:1 63:1 64:1 65:1 66:1 67:1 68:1 69:0 70:0 71:0 72:0 73:1 74:1 75:1 76:1 77:1 78:1 79:1 80:1 81:1 82:1 83:1 84:1 85:1 86:1 87:0 88:0 89:0 90:0 91:0 92:1 93:1 94:1 95:1 96:1 97:1 98:1 99:1 100:1 101:1 102:1 103:1 104:0 105:0 106:0 107:0 108:0 109:0 110:1 111:1 112:1 113:1 114:1 115:1 116:1 117:1 118:1 119:1 120:1 121:1 122:1 123:1 124:0 125:0 126:0 127:1 128:1 129:1 130:1 131:1 132:1 133:1 134:1 135:1 136:1 137:1 138:1 139:1 140:1 141:1 142:1 143:1 144:1 145:0 146:0 147:1 148:1 149:1 150:0 151:0 152:0 153:0 154:0 155:1 156:1 157:1 158:1 159:1 160:1 161:1 162:1 163:1 164:1 165:0 166:0 167:1 168:1 169:0 170:0 171:0 172:0 173:0 174:0 175:0 176:1 177:1 178:1 179:1 180:1 181:1 182:1 183:1 184:1 185:1 186:0 187:0 188:0 189:0 190:1 191:1 192:1 193:1 194:0 195:0 196:0 197:1 198:1 199:1 200:1 201:1 202:1 203:1 204:1 205:1 206:0 207:0 208:0 209:0 210:1 211:1 212:1 213:1 214:1 215:0 216:0 217:1 218:1 219:1 220:1 221:1 222:1 223:1 224:1 225:1 226:0 227:0 228:0 229:1 230:1 231:1 232:1 233:1 234:1 235:1 236:0 237:0 238:1 239:1 240:1 241:1 242:1 243:1 244:1 245:1 246:0 247:0 248:0 249:1 250:1 251:1 252:1 253:1 254:1 255:1 256:0 257:0 258:1 259:1 260:1 261:1 262:1 263:1 264:1 265:1 266:1 267:0 268:0 269:1 270:1 271:1 272:1 273:1 274:1 275:1 276:0 277:0 278:1 279:1 280:1 281:1 282:1 283:1 284:1 285:1 286:1 287:1 288:1 289:1 290:1 291:1 292:1 293:1 294:1 295:1 296:0 297:0 298:1 299:1 300:1 301:1 302:1 303:1 304:1 305:1 306:1 307:1 308:1 309:1 310:1 311:1 312:1 313:1 314:1 315:0 316:0 317:1 318:1 319:1 320:1 321:1 322:1 323:1 324:1 325:1 326:1 327:1 328:1 329:1 330:1 331:1 332:1 333:1 334:0 335:0 336:0 337:1 338:1 339:1 340:1 341:1 342:1 343:1 344:1 345:1 346:1 347:1 348:1 349:0 350:0 351:0 352:0 353:0 354:0 355:0 356:1 357:1 358:1 359:1 360:1 361:1 362:1 363:1 364:1 365:1 366:1 367:1 368:1 369:1 370:0 371:0 372:0 373:0 374:0 375:1 376:1 377:1 378:1 379:1 380:1 381:1 382:1 383:1 384:1 385:1 386:1 387:1 388:1 389:1 390:1 391:1 392:1 393:1 394:1 395:1 396:1 397:1 398:1 399:1 
0 0 0 0 0 2.763405654618059 1.945526651363892 0 0 0:1 1:1 2:1 3:1 4:1 5:1 6:1 7:1 8:1 9:1 10:1 11:1 12:1 13:1 14:1 15:1 16:1 17:1 18:1 19:1 20:1 21:1 22:1 23:1 24:1 25:1 26:1 27:1 28:1 29:1 30:1 31:1 32:1 33:1 34:1 35:1 36:1 37:1 38:1 39:1 40:1 41:1 42:1 43:1 44:1 45:1 46:1 47:1 48:1 49:1 50:1 51:1 52:1 53:1 54:1 55:1 56:1 57:1 58:1 59:1 60:1 61:1 62:1 63:1 64:1 65:1 66:1 67:1 68:1 69:1 70:1 71:1 72:1 73:1 74:1 75:1 76:1 77:1 78:1 79:1 80:1 81:1 82:1 83:1 84:1 85:1 86:1 87:1 88:0 89:0 90:0 91:0 92:1 93:1 94:1 95:1 96:1 97:1 98:1 99:1 100:1 101:1 102:1 103:1 104:1 105:1 106:1 107:0 108:0 109:0 110:0 111:1 112:1 113:1 114:1 115:1 116:1 117:1 118:1 119:1 120:1 121:1 122:1 123:1 124:1 125:0 126:0 127:0 128:0 129:0 130:1 131:1 132:1 133:1 134:1 135:1 136:1 137:1 138:1 139:1 140:1 141:1 142:1 143:1 144:1 145:0 146:0 147:0 148:1 149:1 150:0 151:0 152:0 153:1 154:1 155:1 156:1 157:1 158:1 159:1 160:1 161:1 162:1 163:1 164:1 165:0 166:0 167:0 168:0 169:0 170:0 171:0 172:0 173:0 174:1 175:1 176:1 177:1 178:1 179:1 180:1 181:1 182:1 183:1 184:1 185:1 186:0 187:0 188:0 189:0 190:1 191:1 192:0 193:0 194:0 195:1 196:1 197:1 198:1 199:1 200:1 201:1 202:1 203:1 204:1 205:1 206:0 207:0 208:0 209:1 210:1 211:1 212:1 213:0 214:0 215:0 216:1 217:1 218:1 219:1 220:1 221:1 222:1 223:1 224:1 225:1 226:1 227:0 228:0 229:1 230:1 231:1 232:1 233:0 234:0 235:0 236:1 237:1 238:1 239:1 240:1 241:1 242:1 243:1 244:1 245:1 246:1 247:0 248:0 249:1 250:1 251:1 252:1 253:0 254:0 255:0 256:1 257:1 258:1 259:1 260:1 261:1 262:1 263:1 264:1 265:1 266:1 267:1 268:1 269:1 270:1 271:1 272:1 273:0 274:0 275:1 276:1 277:1 278:1 279:1 280:1 281:1 282:1 283:1 284:1 285:1 286:1 287:1 288:1 289:0 290:0 291:0 292:0 293:0 294:0 295:1 296:1 297:1 298:1 299:1 300:1 301:1 302:1 303:1 304:1 305:1 306:1 307:1 308:0 309:0 310:0 311:0 312:0 313:0 314:1 315:1 316:1 317:1 318:1 319:1 320:1 321:1 322:1 323:1 324:1 325:1 326:1 327:1 328:1 329:1 330:1 331:0 332:1 333:1 334:1 335:1 336:1 337:1 338:1 339:1 340:1 341:1 342:1 343:1 344:1 345:1 346:1 347:1 348:1 349:1 350:1 351:1 352:1 353:1 354:1 355:1 356:1 357:1 358:1 359:1 360:1 361:1 362:1 363:1 364:1 365:1 366:1 367:1 368:1 369:1 370:1 371:1 372:1 373:1 374:1 375:1 376:1 377:1 378:1 379:1 380:1 381:1 382:1 383:1 384:1 385:1 386:1 387:1 388:1 389:1 390:1 391:1 392:1 393:1 394:1 395:1 396:1 397:1 398:1 399:1 
2.189709806042571 1.347112732162755 0.1263407522756965 0.8419404741225226 0 0.8624684315717484 2.968979999725655 0.2211056868941537 0 0:1 1:1 2:1 3:1 4:1 5:1 6:1 7:1 8:1 9:1 10:1 11:1 12:1 13:1 14:1 15:1 16:1 17:1 18:1 19:1 20:1 21:1 22:1 23:1 24:1 25:1 26:1 27:1 28:1 29:1 30:1 31:1 32:1 33:1 34:1 35:1 36:1 37:1 38:1 39:1 40:1 41:1 42:1 43:1 44:1 45:1 46:1 47:1 48:1 49:1 50:1 51:1 52:0 53:1 54:1 55:1 56:1 57:1 58:1 59:1 60:1 61:1 62:1 63:1 64:1 65:1 66:1 67:1 68:1 69:1 70:0 71:0 72:0 73:0 74:1 75:1 76:1 77:1 78:1 79:1 80:1 81:1 82:1 83:1 84:1 85:1 86:1 87:0 88:0 89:0 90:0 91:0 92:0 93:1 94:1 95:1 96:1 97:1 98:1 99:1 100:1 101:1 102:1 103:1 104:0 105:0 106:0 107:0 108:0 109:1 110:1 111:1 112:1 113:1 114:1 115:1 116:1 117:1 118:1 119:1 120:1 121:1 122:1 123:1 124:0 125:0 126:0 127:1 128:1 129:1 130:1 131:1 132:1 133:1 134:1 135:1 136:1 137:1 138:1 139:1 140:1 141:1 142:1 143:1 144:1 145:0 146:0 147:0 148:1 149:1 150:1 151:1 152:1 153:1 154:1 155:1 156:1 157:1 158:1 159:1 160:1 161:1 162:1 163:1 164:1 165:1 166:0 167:0 168:1 169:1 170:1 171:0 172:0 173:0 174:0 175:1 176:1 177:1 178:1 179:1 180:1 181:1 182:1 183:1 184:1 185:1 186:0 187:0 188:1 189:0 190:0 191:0 192:0 193:0 194:0 195:0 196:1 197:1 198:1 199:1 200:1 201:1 202:1 203:1 204:1 205:1 206:0 207:0 208:0 209:0 210:0 211:1 212:1 213:1 214:0 215:0 216:0 217:1 218:1 219:1 220:1 221:1 222:1 223:1 224:1 225:1 226:0 227:0 228:0 229:0 230:1 231:1 232:1 233:1 234:1 235:0 236:0 237:1 238:1 239:1 240:1 241:1 242:1 243:1 244:1 245:1 246:0 247:0 248:0 249:1 250:1 251:1 252:1 253:1 254:1 255:1 256:0 257:0 258:1 259:1 260:1 261:1 262:1 263:1 264:1 265:1 266:1 267:0 268:0 269:1 270:1 271:1 272:1 273:1 274:1 275:1 276:0 277:0 278:1 279:1 280:1 281:1 282:1 283:1 284:1 285:1 286:1 287:1 288:1 289:1 290:1 291:1 292:1 293:1 294:1 295:1 296:0 297:0 298:1 299:1 300:1 301:1 302:1 303:1 304:1 305:1 306:1 307:1 308:1 309:1 310:1 311:1 312:1 313:1 314:1 315:1 316:0 317:0 318:1 319:1 320:1 321:1 322:1 323:1 324:1 325:1 326:1 327:1 328:1 329:1 330:1 331:1 332:1 333:1 334:1 335:0 336:0 337:1 338:1 339:1 340:1 341:1 342:1 343:1 344:1 345:1 346:1 347:1 348:1 349:1 350:1 351:1 352:1 353:1 354:0 355:0 356:0 357:1 358:1 359:1 360:1 361:1 362:1 363:1 364:1 365:1 366:1 367:1 368:0 369:0 370:0 371:0 372:0 373:0 374:0 375:0 376:1 377:1 378:1 379:1 380:1 381:1 382:1 383:1 384:1 385:1 386:1 387:1 388:1 389:0 390:0 391:0 392:0 393:0 394:0 395:1 396:1 397:1 398:1 399:1 
0 0.07523058549963277 3.673497537785916 0 5.865037398174663 0 1.7218611003191 0 0 0:1 1:1 2:1 3:1 4:1 5:1 6:1 7:1 8:1 9:1 10:1 11:1 12:1 13:1 14:1 15:1 16:1 17:1 18:1 19:1 20:1 21:1 22:1 23:1 24:1 25:1 26:1 27:1 28:1 29:1 30:1 31:1 32:1 33:1 34:1 35:1 36:1 37:1 38:1 39:1 40:1 41:1 42:1 43:1 44:1 45:1 46:1 47:1 48:1 49:1 50:1 51:0 52:0 53:1 54:1 55:1 56:1 57:1 58:1 59:1 60:1 61:1 62:1 63:1 64:1 65:1 66:1 67:1 68:1 69:0 70:0 71:0 72:0 73:1 74:1 75:1 76:1 77:1 78:1 79:1 80:1 81:1 82:1 83:1 84:1 85:1 86:1 87:0 88:0 89:0 90:0 91:0 92:1 93:1 94:1 95:1 96:1 97:1 98:1 99:1 100:1 101:1 102:1 103:1 104:0 105:0 106:0 107:0 108:0 109:1 110:1 111:1 112:1 113:1 114:1 115:1 116:1 117:1 118:1 119:1 120:1 121:1 122:1 123:1 124:0 125:0 126:0 127:1 128:1 129:1 130:1 131:1 132:1 133:1 134:1 135:1 136:1 137:1 138:1 139:1 140:1 141:1 142:1 143:1 144:1 145:0 146:0 147:0 148:1 149:1 150:1 151:1 152:1 153:0 154:1 155:1 156:1 157:1 158:1 159:1 160:1 161:1 162:1 163:1 164:1 165:0 166:0 167:0 168:1 169:1 170:0 171:0 172:0 173:0 174:0 175:0 176:1 177:1 178:1 179:1 180:1 181:1 182:1 183:1 184:1 185:1 186:0 187:0 188:1 189:0 190:0 191:0 192:0 193:0 194:0 195:0 196:0 197:1 198:1 199:1 200:1 201:1 202:1 203:1 204:1 205:1 206:0 207:0 208:0 209:0 210:0 211:1 212:1 213:1 214:1 215:0 216:0 217:0 218:1 219:1 220:1 221:1 222:1 223:1 224:1 225:1 226:0 227:0 228:0 229:0 230:1 231:1 232:1 233:1 234:1 235:1 236:0 237:0 238:1 239:1 240:1 241:1 242:1 243:1 244:1 245:1 246:1 247:0 248:0 249:0 250:1 251:1 252:1 253:1 254:1 255:1 256:0 257:0 258:1 259:1 260:1 261:1 262:1 263:1 264:1 265:1 266:1 267:0 268:0 269:1 270:1 271:1 272:1 273:1 274:1 275:1 276:0 277:0 278:1 279:1 280:1 281:1 282:1 283:1 284:1 285:1 286:1 287:1 288:1 289:1 290:1 291:1 292:1 293:1 294:1 295:1 296:0 297:0 298:1 299:1 300:1 301:1 302:1 303:1 304:1 305:1 306:1 307:1 308:1 309:1 310:1 311:1 312:1 313:1 314:1 315:1 316:0 317:0 318:1 319:1 320:1 321:1 322:1 323:1 324:1 325:1 326:1 327:1 328:1 329:1 330:1 331:1 332:1 333:1 334:1 335:0 336:0 337:0 338:1 339:1 340:1 341:1 342:1 343:1 344:1 345:1 346:1 347:1 348:1 349:0 350:0 351:1 352:1 353:1 354:0 355:0 356:0 357:1 358:1 359:1 360:1 361:1 362:1 363:1 364:1 365:1 366:1 367:1 368:1 369:0 370:0 371:0 372:0 373:0 374:0 375:0 376:1 377:1 378:1 379:1 380:1 381:1 382:1 383:1 384:1 385:1 386:1 387:1 388:1 389:1 390:0 391:0 392:0 393:0 394:1 395:1 396:1 397:1 398:1 399:1 
0 0 0 1.386874550850992 0 0 0 0 0 0:1 1:1 2:1 3:1 4:1 5:1 6:1 7:1 8:1 9:1 10:1 11:1 12:1 13:1 14:1 15:1 16:1 17:1 18:1 19:1 20:1 21:1 22:1 23:1 24:1 25:1 26:1 27:1 28:1 29:1 30:1 31:1 32:1 33:1 34:1 35:1 36:1 37:1 38:1 39:1 40:1 41:1 42:1 43:1 44:1 45:1 46:1 47:1 48:1 49:0 50:0 51:1 52:1 53:1 54:1 55:1 56:1 57:1 58:1 59:1 60:1 61:1 62:1 63:1 64:1 65:1 66:1 67:1 68:1 69:0 70:0 71:0 72:0 73:1 74:1 75:1 76:1 77:1 78:1 79:1 80:1 81:1 82:1 83:1 84:1 85:1 86:1 87:1 88:1 89:0 90:0 91:0 92:0 93:0 94:0 95:0 96:0 97:1 98:1 99:1 100:1 101:1 102:1 103:1 104:1 105:1 106:1 107:1 108:0 109:0 110:0 111:1 112:0 113:0 114:0 115:0 116:0 117:0 118:1 119:1 120:1 121:1 122:1 123:1 124:1 125:1 126:1 127:0 128:0 129:0 130:1 131:1 132:1 133:1 134:0 135:0 136:0 137:0 138:1 139:1 140:1 141:1 142:1 143:1 144:1 145:1 146:1 147:0 148:0 149:0 150:1 151:1 152:1 153:1 154:1 155:1 156:1 157:1 158:1 159:1 160:1 161:1 162:1 163:1 164:1 165:1 166:0 167:0 168:0 169:0 170:0 171:0 172:0 173:1 174:1 175:1 176:1 177:1 178:1 179:1 180:1 181:1 182:1 183:1 184:1 185:1 186:0 187:0 188:0 189:0 190:0 191:0 192:0 193:0 194:0 195:1 196:1 197:1 198:1 199:1 200:1 201:1 202:1 203:1 204:1 205:1 206:0 207:0 208:0 209:0 210:0 211:0 212:0 213:0 214:0 215:1 216:1 217:1 218:1 219:1 220:1 221:1 222:1 223:1 224:1 225:1 226:0 227:0 228:1 229:1 230:1 231:1 232:1 233:0 234:0 235:0 236:1 237:1 238:1 239:1 240:1 241:1 242:1 243:1 244:1 245:1 246:1 247:1 248:1 249:1 250:1 251:1 252:1 253:1 254:0 255:0 256:1 257:1 258:1 259:1 260:1 261:1 262:1 263:1 264:1 265:1 266:1 267:1 268:1 269:1 270:1 271:1 272:1 273:1 274:0 275:0 276:1 277:1 278:1 279:1 280:1 281:1 282:1 283:1 284:0 285:0 286:1 287:1 288:1 289:1 290:1 291:1 292:1 293:1 294:0 295:0 296:1 297:1 298:1 299:1 300:1 301:1 302:1 303:1 304:0 305:0 306:1 307:1 308:1 309:1 310:1 311:1 312:1 313:0 314:0 315:0 316:1 317:1 318:1 319:1 320:1 321:1 322:1 323:1 324:0 325:0 326:0 327:1 328:1 329:1 330:1 331:1 332:1 333:0 334:0 335:1 336:1 337:1 338:1 339:1 340:1 341:1 342:1 343:1 344:0 345:0 346:0 347:0 348:0 349:1 350:0 351:0 352:0 353:0 354:0 355:1 356:1 357:1 358:1 359:1 360:1 361:1 362:1 363:1 364:1 365:1 366:0 367:0 368:0 369:0 370:0 371:0 372:0 373:0 374:1 375:1 376:1 377:1 378:1 379:1 380:1 381:1 382:1 383:1 384:1 385:1 386:1 387:0 388:0 389:0 390:0 391:0 392:1 393:1 394:1 395:1 396:1 397:1 398:1 399:1 
0 0 0 0 0 0 0 0 7.809598246383562 0:1 1:1 2:1 3:1 4:1 5:1 6:1 7:1 8:1 9:1 10:1 11:1 12:1 13:1 14:1 15:1 16:1 17:1 18:1 19:1 20:1 21:1 22:1 23:1 24:1 25:1 26:1 27:1 28:1 29:1 30:1 31:1 32:1 33:1 34:1 35:1 36:1 37:1 38:1 39:1 40:1 41:1 42:1 43:1 44:1 45:1 46:1 47:1 48:1 49:1 50:1 51:1 52:1 53:1 54:1 55:1 56:1 57:1 58:1 59:1 60:1 61:1 62:1 63:1 64:1 65:1 66:1 67:1 68:1 69:0 70:0 71:0 72:1 73:1 74:1 75:1 76:1 77:1 78:1 79:1 80:1 81:1 82:1 83:1 84:1 85:1 86:1 87:1 88:1 89:0 90:0 91:0 92:0 93:0 94:0 95:1 96:1 97:1 98:1 99:1 100:1 101:1 102:1 103:1 104:1 105:1 106:1 107:1 108:0 109:0 110:1 111:1 112:0 113:0 114:0 115:0 116:0 117:1 118:1 119:1 120:1 121:1 122:1 123:1 124:1 125:1 126:1 127:1 128:0 129:0 130:1 131:1 132:1 133:1 134:1 135:0 136:0 137:1 138:1 139:1 140:1 141:1 142:1 143:1 144:1 145:1 146:1 147:0 148:0 149:0 150:0 151:1 152:1 153:1 154:1 155:1 156:1 157:1 158:1 159:1 160:1 161:1 162:1 163:1 164:1 165:1 166:1 167:0 168:0 169:0 170:0 171:0 172:0 173:0 174:1 175:1 176:1 177:1 178:1 179:1 180:1 181:1 182:1 183:1 184:1 185:1 186:1 187:0 188:0 189:0 190:0 191:0 192:0 193:0 194:0 195:1 196:1 197:1 198:1 199:1 200:1 201:1 202:1 203:1 204:1 205:1 206:1 207:0 208:0 209:1 210:1 211:1 212:1 213:0 214:0 215:0 216:1 217:1 218:1 219:1 220:1 221:1 222:1 223:1 224:1 225:1 226:1 227:1 228:1 229:1 230:1 231:1 232:1 233:1 234:0 235:0 236:1 237:1 238:1 239:1 240:1 241:1 242:1 243:1 244:1 245:1 246:1 247:1 248:1 249:1 250:1 251:1 252:1 253:1 254:0 255:0 256:1 257:1 258:1 259:1 260:1 261:1 262:1 263:1 264:1 265:0 266:0 267:1 268:1 269:1 270:1 271:1 272:1 273:1 274:0 275:0 276:1 277:1 278:1 279:1 280:1 281:1 282:1 283:1 284:1 285:0 286:0 287:1 288:1 289:1 290:1 291:1 292:1 293:0 294:0 295:1 296:1 297:1 298:1 299:1 300:1 301:1 302:1 303:1 304:1 305:0 306:0 307:0 308:1 309:1 310:1 311:1 312:0 313:0 314:0 315:1 316:1 317:1 318:1 319:1 320:1 321:1 322:1 323:1 324:1 325:1 326:0 327:0 328:0 329:0 330:0 331:0 332:0 333:0 334:1 335:1 336:1 337:1 338:1 339:1 340:1 341:1 342:1 343:1 344:1 345:1 346:1 347:1 348:0 349:0 350:0 351:0 352:1 353:1 354:1 355:1 356:1 357:1 358:1 359:1 360:1 361:1 362:1 363:1 364:1 365:1 366:1 367:1 368:1 369:1 370:1 371:1 372:1 373:1 374:1 375:1 376:1 377:1 378:1 379:1 380:1 381:1 382:1 383:1 384:1 385:1 386:1 387:1 388:1 389:1 390:1 391:1 392:1 393:1 394:1 395:1 396:1 397:1 398:1 399:1 
0 0 0 0 1.552876685891017 0 0 0 0 0:1 1:1 2:1 3:1 4:1 5:1 6:1 7:1 8:1 9:1 10:1 11:1 12:1 13:1 14:1 15:1 16:1 17:1 18:1 19:1 20:1 21:1 22:1 23:1 24:1 25:1 26:1 27:1 28:1 29:1 30:1 31:1 32:1 33:1 34:1 35:1 36:1 37:1 38:1 39:1 40:1 41:1 42:1 43:1 44:1 45:1 46:1 47:1 48:1 49:1 50:1 51:1 52:1 53:1 54:1 55:1 56:1 57:1 58:1 59:1 60:1 61:1 62:1 63:1 64:1 65:1 66:1 67:1 68:1 69:1 70:1 71:1 72:1 73:1 74:1 75:1 76:1 77:1 78:1 79:1 80:1 81:1 82:1 83:1 84:1 85:1 86:1 87:1 88:1 89:0 90:0 91:1 92:1 93:1 94:1 95:1 96:1 97:1 98:1 99:1 100:1 101:1 102:1 103:1 104:1 105:1 106:1 107:1 108:1 109:0 110:0 111:0 112:0 113:0 114:1 115:1 116:1 117:1 118:1 119:1 120:1 121:1 122:1 123:1 124:1 125:1 126:1 127:1 128:0 129:0 130:0 131:0 132:0 133:0 134:0 135:0 136:1 137:1 138:1 139:1 140:1 141:1 142:1 143:1 144:1 145:1 146:1 147:1 148:0 149:0 150:1 151:1 152:0 153:0 154:0 155:0 156:1 157:1 158:1 159:1 160:1 161:1 162:1 163:1 164:1 165:1 166:1 167:0 168:0 169:0 170:0 171:0 172:0 173:1 174:1 175:1 176:1 177:1 178:1 179:1 180:1 181:1 182:1 183:1 184:1 185:1 186:1 187:0 188:0 189:0 190:0 191:0 192:0 193:0 194:1 195:1 196:1 197:1 198:1 199:1 200:1 201:1 202:1 203:1 204:1 205:1 206:1 207:0 208:0 209:1 210:1 211:0 212:0 213:0 214:1 215:1 216:1 217:1 218:1 219:1 220:1 221:1 222:1 223:1 224:1 225:1 226:1 227:1 228:1 229:1 230:1 231:1 232:0 233:0 234:0 235:1 236:1 237:1 238:1 239:1 240:1 241:1 242:1 243:1 244:1 245:1 246:1 247:1 248:1 249:1 250:1 251:1 252:0 253:0 254:0 255:1 256:1 257:1 258:1 259:1 260:1 261:1 262:1 263:1 264:1 265:1 266:0 267:1 268:1 269:1 270:1 271:1 272:0 273:0 274:1 275:1 276:1 277:1 278:1 279:1 280:1 281:1 282:1 283:1 284:1 285:1 286:0 287:0 288:0 289:1 290:0 291:0 292:0 293:0 294:1 295:1 296:1 297:1 298:1 299:1 300:1 301:1 302:1 303:1 304:1 305:1 306:0 307:0 308:0 309:0 310:0 311:0 312:0 313:1 314:1 315:1 316:1 317:1 318:1 319:1 320:1 321:1 322:1 323:1 324:1 325:1 326:1 327:1 328:0 329:0 330:0 331:1 332:1 333:1 334:1 335:1 336:1 337:1 338:1 339:1 340:1 341:1 342:1 343:1 344:1 345:1 346:1 347:1 348:1 349:1 350:1 351:1 352:1 353:1 354:1 355:1 356:1 357:1 358:1 359:1 360:1 361:1 362:1 363:1 364:1 365:1 366:1 367:1 368:1 369:1 370:1 371:1 372:1 373:1 374:1 375:1 376:1 377:1 378:1 379:1 380:1 381:1 382:1 383:1 384:1 385:1 386:1 387:1 388:1 389:1 390:1 391:1 392:1 393:1 394:1 395:1 396:1 397:1 398:1 399:1 
0.8329030912407768 0 2.039824819419327 0 0 0.5756341562227478 0 0 0 0:1 1:1 2:1 3:1 4:1 5:1 6:1 7:1 8:1 9:1 10:1 11:1 12:1 13:1 14:1 15:1 16:1 17:1 18:1 19:1 20:1 21:1 22:1 23:1 24:1 25:1 26:1 27:1 28:1 29:1 30:1 31:1 32:1 33:1 34:1 35:1 36:1 37:1 38:1 39:1 40:1 41:1 42:1 43:1 44:1 45:1 46:1 47:1 48:0 49:0 50:0 51:1 52:1 53:1 54:1 55:1 56:1 57:1 58:1 59:1 60:1 61:1 62:1 63:1 64:1 65:1 66:1 67:1 68:0 69:0 70:0 71:0 72:0 73:0 74:1 75:1 76:1 77:1 78:1 79:1 80:1 81:1 82:1 83:1 84:1 85:1 86:1 87:1 88:0 89:0 90:1 91:0 92:0 93:0 94:0 95:0 96:0 97:1 98:1 99:1 100:1 101:1 102:1 103:1 104:1 105:1 106:1 107:1 108:0 109:0 110:1 111:1 112:1 113:0 114:0 115:0 116:0 117:0 118:1 119:1 120:1 121:1 122:1 123:1 124:1 125:1 126:1 127:0 128:0 129:1 130:1 131:1 132:1 133:1 134:1 135:1 136:0 137:1 138:1 139:1 140:1 141:1 142:1 143:1 144:1 145:1 146:0 147:0 148:0 149:0 150:0 151:0 152:0 153:1 154:1 155:1 156:1 157:1 158:1 159:1 160:1 161:1 162:1 163:1 164:1 165:1 166:0 167:0 168:0 169:0 170:0 171:0 172:0 173:0 174:0 175:1 176:1 177:1 178:1 179:1 180:1 181:1 182:1 183:1 184:1 185:1 186:0 187:0 188:0 189:1 190:1 191:1 192:0 193:0 194:0 195:0 196:1 197:1 198:1 199:1 200:1 201:1 202:1 203:1 204:1 205:1 206:1 207:1 208:1 209:1 210:1 211:1 212:1 213:1 214:0 215:0 216:1 217:1 218:1 219:1 220:1 221:1 222:1 223:1 224:1 225:1 226:1 227:1 228:1 229:1 230:1 231:1 232:1 233:1 234:0 235:0 236:1 237:1 238:1 239:1 240:1 241:1 242:1 243:1 244:1 245:1 246:1 247:1 248:1 249:1 250:1 251:1 252:1 253:1 254:0 255:0 256:1 257:1 258:1 259:1 260:1 261:1 262:1 263:1 264:0 265:0 266:1 267:1 268:1 269:1 270:1 271:1 272:1 273:1 274:0 275:0 276:1 277:1 278:1 279:1 280:1 281:1 282:1 283:1 284:0 285:0 286:1 287:1 288:1 289:1 290:1 291:1 292:1 293:0 294:0 295:1 296:1 297:1 298:1 299:1 300:1 301:1 302:1 303:1 304:0 305:0 306:0 307:1 308:1 309:1 310:1 311:1 312:0 313:0 314:0 315:1 316:1 317:1 318:1 319:1 320:1 321:1 322:1 323:1 324:1 325:0 326:0 327:0 328:0 329:0 330:0 331:0 332:0 333:0 334:1 335:1 336:1 337:1 338:1 339:1 340:1 341:1 342:1 343:1 344:1 345:1 346:0 347:0 348:0 349:0 350:0 351:0 352:0 353:1 354:1 355:1 356:1 357:1 358:1 359:1 360:1 361:1 362:1 363:1 364:1 365:1 366:1 367:1 368:0 369:0 370:0 371:1 372:1 373:1 374:1 375:1 376:1 377:1 378:1 379:1 380:1 381:1 382:1 383:1 384:1 385:1 386:1 387:1 388:1 389:1 390:1 391:1 392:1 393:1 394:1 395:1 396:1 397:1 398:1 399:1 
0 0 0 0 0 0.7860820887820518 0 0 0 0:1 1:1 2:1 3:1 4:1 5:1 6:1 7:1 8:1 9:1 10:1 11:1 12:1 13:1 14:1 15:1 16:1 17:1 18:1 19:1 20:1 21:1 22:1 23:1 24:1 25:1 26:1 27:1 28:1 29:1 30:1 31:1 32:1 33:1 34:1 35:1 36:1 37:1 38:1 39:1 40:1 41:1 42:1 43:1 44:1 45:1 46:1 47:1 48:1 49:1 50:1 51:1 52:1 53:1 54:1 55:1 56:1 57:1 58:1 59:1 60:1 61:1 62:1 63:1 64:1 65:1 66:0 67:0 68:0 69:0 70:0 71:0 72:0 73:0 74:0 75:1 76:1 77:1 78:1 79:1 80:1 81:1 82:1 83:1 84:1 85:1 86:0 87:0 88:0 89:0 90:0 91:0 92:0 93:0 94:0 95:1 96:1 97:1 98:1 99:1 100:1 101:1 102:1 103:1 104:1 105:1 106:0 107:0 108:0 109:0 110:1 111:0 112:0 113:0 114:1 115:1 116:1 117:1 118:1 119:1 120:1 121:1 122:1 123:1 124:1 125:1 126:0 127:0 128:1 129:1 130:1 131:1 132:1 133:1 134:1 135:1 136:1 137:1 138:1 139:1 140:1 141:1 142:1 143:1 144:1 145:0 146:0 147:0 148:0 149:0 150:0 151:0 152:0 153:1 154:1 155:1 156:1 157:1 158:1 159:1 160:1 161:1 162:1 163:1 164:1 165:0 166:0 167:0 168:0 169:0 170:0 171:0 172:0 173:0 174:1 175:1 176:1 177:1 178:1 179:1 180:1 181:1 182:1 183:1 184:1 185:0 186:0 187:0 188:0 189:0 190:1 191:0 192:0 193:0 194:0 195:1 196:1 197:1 198:1 199:1 200:1 201:1 202:1 203:1 204:1 205:0 206:0 207:0 208:1 209:1 210:1 211:1 212:1 213:0 214:0 215:1 216:1 217:1 218:1 219:1 220:1 221:1 222:1 223:1 224:1 225:0 226:0 227:1 228:1 229:1 230:1 231:1 232:1 233:0 234:0 235:0 236:1 237:1 238:1 239:1 240:1 241:1 242:1 243:1 244:1 245:1 246:1 247:1 248:1 249:1 250:1 251:1 252:1 253:0 254:0 255:1 256:1 257:1 258:1 259:1 260:1 261:1 262:1 263:1 264:1 265:0 266:0 267:1 268:1 269:1 270:1 271:1 272:1 273:0 274:0 275:1 276:1 277:1 278:1 279:1 280:1 281:1 282:1 283:1 284:1 285:0 286:0 287:0 288:1 289:1 290:1 291:1 292:0 293:0 294:0 295:1 296:1 297:1 298:1 299:1 300:1 301:1 302:1 303:1 304:1 305:1 306:0 307:0 308:0 309:0 310:0 311:0 312:0 313:0 314:1 315:1 316:1 317:1 318:1 319:1 320:1 321:1 322:1 323:1 324:1 325:1 326:1 327:0 328:0 329:0 330:0 331:0 332:1 333:1 334:1 335:1 336:1 337:1 338:1 339:1 340:1 341:1 342:1 343:1 344:1 345:1 346:1 347:1 348:1 349:0 350:0 351:1 352:1 353:1 354:1 355:1 356:1 357:1 358:1 359:1 360:1 361:1 362:1 363:1 364:1 365:1 366:1 367:1 368:1 369:1 370:1 371:1 372:1 373:1 374:1 375:1 376:1 377:1 378:1 379:1 380:1 381:1 382:1 383:1 384:1 385:1 386:1 387:1 388:1 389:1 390:1 391:1 392:1 393:1 394:1 395:1 396:1 397:1 398:1 399:1 
0 0 0 0 0 0 0 0 3.251841225742679 0:1 1:1 2:1 3:1 4:1 5:1 6:1 7:1 8:1 9:1 10:1 11:1 12:1 13:1 14:1 15:1 16:1 17:1 18:1 19:1 20:1 21:1 22:1 23:1 24:1 25:1 26:1 27:1 28:1 29:1 30:1 31:1 32:1 33:1 34:1 35:1 36:1 37:1 38:1 39:1 40:1 41:1 42:1 43:1 44:1 45:1 46:1 47:1 48:1 49:1 50:0 51:0 52:0 53:1 54:1 55:1 56:1 57:1 58:1 59:1 60:1 61:1 62:1 63:1 64:1 65:1 66:0 67:0 68:0 69:0 70:0 71:0 72:0 73:1 74:1 75:1 76:1 77:1 78:1 79:1 80:1 81:1 82:1 83:1 84:0 85:0 86:0 87:0 88:0 89:0 90:1 91:1 92:1 93:1 94:1 95:1 96:1 97:1 98:1 99:1 100:1 101:1 102:1 103:1 104:0 105:0 106:1 107:1 108:1 109:1 110:1 111:1 112:1 113:1 114:1 115:1 116:1 117:1 118:1 119:1 120:1 121:1 122:1 123:1 124:0 125:0 126:1 127:1 128:1 129:1 130:0 131:0 132:0 133:1 134:1 135:1 136:1 137:1 138:1 139:1 140:1 141:1 142:1 143:1 144:0 145:0 146:0 147:1 148:0 149:0 150:0 151:0 152:0 153:0 154:1 155:1 156:1 157:1 158:1 159:1 160:1 161:1 162:1 163:1 164:1 165:0 166:0 167:0 168:0 169:0 170:0 171:0 172:0 173:0 174:0 175:1 176:1 177:1 178:1 179:1 180:1 181:1 182:1 183:1 184:1 185:0 186:0 187:0 188:0 189:1 190:1 191:1 192:1 193:0 194:0 195:0 196:1 197:1 198:1 199:1 200:1 201:1 202:1 203:1 204:1 205:0 206:0 207:0 208:1 209:1 210:1 211:1 212:1 213:1 214:0 215:0 216:1 217:1 218:1 219:1 220:1 221:1 222:1 223:1 224:1 225:0 226:0 227:0 228:1 229:1 230:1 231:1 232:1 233:1 234:0 235:0 236:1 237:1 238:1 239:1 240:1 241:1 242:1 243:1 244:1 245:0 246:0 247:1 248:1 249:1 250:1 251:1 252:1 253:1 254:0 255:0 256:0 257:1 258:1 259:1 260:1 261:1 262:1 263:1 264:1 265:1 266:1 267:1 268:1 269:1 270:1 271:1 272:1 273:1 274:0 275:0 276:1 277:1 278:1 279:1 280:1 281:1 282:1 283:1 284:1 285:1 286:1 287:1 288:1 289:1 290:1 291:1 292:1 293:1 294:0 295:0 296:1 297:1 298:1 299:1 300:1 301:1 302:1 303:1 304:1 305:1 306:1 307:1 308:1 309:1 310:1 311:1 312:1 313:0 314:0 315:0 316:1 317:1 318:1 319:1 320:1 321:1 322:1 323:1 324:1 325:1 326:0 327:0 328:0 329:1 330:1 331:0 332:0 333:0 334:0 335:1 336:1 337:1 338:1 339:1 340:1 341:1 342:1 343:1 344:1 345:1 346:1 347:0 348:0 349:0 350:0 351:0 352:0 353:0 354:1 355:1 356:1 357:1 358:1 359:1 360:1 361:1 362:1 363:1 364:1 365:1 366:1 367:1 368:0 369:0 370:0 371:0 372:1 373:1 374:1 375:1 376:1 377:1 378:1 379:1 380:1 381:1 382:1 383:1 384:1 385:1 386:1 387:1 388:1 389:1 390:1 391:1 392:1 393:1 394:1 395:1 396:1 397:1 398:1 399:1 
0 0 0 0 0 0 0 0 3.405051848290562 0:1 1:1 2:1 3:1 4:1 5:1 6:1 7:1 8:1 9:1 10:1 11:1 12:1 13:1 14:1 15:1 16:1 17:1 18:1 19:1 20:1 21:1 22:1 23:1 24:1 25:1 26:1 27:1 28:1 29:1 30:1 31:1 32:1 33:1 34:1 35:1 36:1 37:1 38:1 39:1 40:1 41:1 42:1 43:1 44:1 45:1 46:1 47:1 48:1 49:1 50:1 51:1 52:1 53:1 54:1 55:1 56:1 57:1 58:1 59:1 60:1 61:1 62:1 63:1 64:1 65:1 66:1 67:1 68:0 69:0 70:1 71:1 72:1 73:1 74:1 75:1 76:1 77:1 78:1 79:1 80:1 81:1 82:1 83:1 84:1 85:1 86:1 87:1 88:0 89:0 90:0 91:0 92:0 93:0 94:1 95:1 96:1 97:1 98:1 99:1 100:1 101:1 102:1 103:1 104:1 105:1 106:1 107:1 108:0 109:0 110:0 111:0 112:0 113:0 114:0 115:0 116:1 117:1 118:1 119:1 120:1 121:1 122:1 123:1 124:1 125:1 126:1 127:0 128:0 129:1 130:1 131:1 132:1 133:1 134:0 135:0 136:1 137:1 138:1 139:1 140:1 141:1 142:1 143:1 144:1 145:1 146:1 147:0 148:0 149:1 150:1 151:1 152:1 153:1 154:1 155:1 156:1 157:1 158:1 159:1 160:1 161:1 162:1 163:1 164:1 165:1 166:1 167:0 168:0 169:0 170:0 171:0 172:0 173:1 174:1 175:1 176:1 177:1 178:1 179:1 180:1 181:1 182:1 183:1 184:1 185:1 186:0 187:0 188:0 189:0 190:0 191:0 192:0 193:0 194:1 195:1 196:1 197:1 198:1 199:1 200:1 201:1 202:1 203:1 204:1 205:1 206:0 207:0 208:0 209:1 210:1 211:1 212:1 213:0 214:0 215:1 216:1 217:1 218:1 219:1 220:1 221:1 222:1 223:1 224:1 225:1 226:0 227:1 228:1 229:1 230:1 231:1 232:1 233:0 234:0 235:1 236:1 237:1 238:1 239:1 240:1 241:1 242:1 243:1 244:1 245:1 246:1 247:1 248:1 249:1 250:1 251:1 252:1 253:0 254:0 255:1 256:1 257:1 258:1 259:1 260:1 261:1 262:1 263:1 264:1 265:1 266:1 267:1 268:1 269:1 270:1 271:1 272:1 273:0 274:0 275:1 276:1 277:1 278:1 279:1 280:1 281:1 282:1 283:1 284:1 285:0 286:0 287:1 288:1 289:1 290:1 291:1 292:1 293:0 294:0 295:1 296:1 297:1 298:1 299:1 300:1 301:1 302:1 303:1 304:1 305:0 306:0 307:1 308:1 309:1 310:1 311:1 312:0 313:0 314:0 315:1 316:1 317:1 318:1 319:1 320:1 321:1 322:1 323:1 324:1 325:0 326:0 327:0 328:0 329:1 330:0 331:0 332:0 333:0 334:1 335:1 336:1 337:1 338:1 339:1 340:1 341:1 342:1 343:1 344:1 345:1 346:0 347:0 348:0 349:0 350:0 351:0 352:0 353:0 354:1 355:1 356:1 357:1 358:1 359:1 360:1 361:1 362:1 363:1 364:1 365:1 366:1 367:1 368:0 369:0 370:1 371:1 372:1 373:1 374:1 375:1 376:1 377:1 378:1 379:1 380:1 381:1 382:1 383:1 384:1 385:1 386:1 387:1 388:1 389:1 390:1 391:1 392:1 393:1 394:1 395:1 396:1 397:1 398:1 399:1 
0 0.04485801670863344 3.763855579873591 1.576652203358638 17.42809461450823 6.413835909899194 0 4.274938759540318 23.88516841750434 0:1 1:1 2:1 3:1 4:1 5:1 6:1 7:1 8:1 9:1 10:1 11:1 12:1 13:1 14:1 15:1 16:1 17:1 18:1 19:1 20:1 21:1 22:1 23:1 24:1 25:1 26:1 27:1 28:1 29:1 30:1 31:1 32:1 33:1 34:1 35:1 36:1 37:1 38:1 39:1 40:1 41:1 42:1 43:1 44:1 45:1 46:1 47:1 48:1 49:1 50:1 51:1 52:1 53:1 54:1 55:1 56:1 57:1 58:1 59:1 60:1 61:1 62:1 63:1 64:1 65:1 66:1 67:1 68:1 69:1 70:1 71:0 72:1 73:1 74:1 75:1 76:1 77:1 78:1 79:1 80:1 81:1 82:1 83:1 84:1 85:1 86:1 87:1 88:1 89:1 90:0 91:0 92:1 93:1 94:1 95:1 96:1 97:1 98:1 99:1 100:1 101:1 102:1 103:1 104:1 105:1 106:1 107:1 108:0 109:0 110:0 111:0 112:1 113:1 114:1 115:1 116:1 117:1 118:1 119:1 120:1 121:1 122:1 123:1 124:1 125:1 126:1 127:0 128:0 129:0 130:1 131:1 132:1 133:1 134:1 135:1 136:1 137:1 138:1 139:1 140:1 141:1 142:1 143:1 144:1 145:0 146:0 147:0 148:0 149:1 150:1 151:1 152:1 153:1 154:1 155:1 156:1 157:1 158:1 159:1 160:1 161:1 162:1 163:1 164:0 165:0 166:0 167:1 168:1 169:1 170:1 171:0 172:0 173:1 174:1 175:1 176:1 177:1 178:1 179:1 180:1 181:1 182:1 183:1 184:0 185:0 186:1 187:1 188:1 189:0 190:0 191:0 192:0 193:0 194:0 195:1 196:1 197:1 198:1 199:1 200:1 201:1 202:1 203:1 204:1 205:0 206:0 207:1 208:0 209:0 210:0 211:0 212:0 213:0 214:0 215:0 216:1 217:1 218:1 219:1 220:1 221:1 222:1 223:1 224:1 225:0 226:0 227:0 228:0 229:0 230:1 231:1 232:1 233:1 234:0 235:0 236:1 237:1 238:1 239:1 240:1 241:1 242:1 243:1 244:1 245:1 246:0 247:0 248:0 249:1 250:1 251:1 252:1 253:1 254:0 255:0 256:0 257:1 258:1 259:1 260:1 261:1 262:1 263:1 264:1 265:1 266:0 267:0 268:0 269:1 270:1 271:1 272:1 273:1 274:1 275:0 276:0 277:1 278:1 279:1 280:1 281:1 282:1 283:1 284:1 285:1 286:1 287:0 288:0 289:1 290:1 291:1 292:1 293:1 294:0 295:0 296:0 297:1 298:1 299:1 300:1 301:1 302:1 303:1 304:1 305:1 306:1 307:0 308:1 309:1 310:1 311:1 312:1 313:1 314:0 315:0 316:1 317:1 318:1 319:1 320:1 321:1 322:1 323:1 324:1 325:1 326:1 327:1 328:1 329:1 330:1 331:1 332:1 333:0 334:0 335:0 336:1 337:1 338:1 339:1 340:1 341:1 342:1 343:1 344:1 345:1 346:1 347:1 348:0 349:0 350:0 351:0 352:0 353:0 354:0 355:1 356:1 357:1 358:1 359:1 360:1 361:1 362:1 363:1 364:1 365:1 366:1 367:1 368:1 369:0 370:0 371:0 372:0 373:1 374:1 375:1 376:1 377:1 378:1 379:1 380:1 381:1 382:1 383:1 384:1 385:1 386:1 387:1 388:1 389:1 390:1 391:1 392:1 393:1 394:1 395:1 396:1 397:1 398:1 399:1 
0 0 0 0 0 0 0 0 1.264924271889666 0:1 1:1 2:1 3:1 4:1 5:1 6:1 7:1 8:1 9:1 10:1 11:1 12:1 13:1 14:1 15:1 16:1 17:1 18:1 19:1 20:1 21:1 22:1 23:1 24:1 25:1 26:1 27:1 28:1 29:1 30:1 31:1 32:1 33:1 34:1 35:1 36:1 37:1 38:1 39:1 40:1 41:1 42:1 43:1 44:1 45:1 46:1 47:1 48:1 49:1 50:1 51:1 52:1 53:1 54:1 55:1 56:1 57:1 58:1 59:1 60:1 61:1 62:1 63:1 64:1 65:1 66:1 67:1 68:1 69:0 70:0 71:0 72:0 73:1 74:1 75:1 76:1 77:1 78:1 79:1 80:1 81:1 82:1 83:1 84:1 85:1 86:1 87:1 88:1 89:0 90:0 91:0 92:0 93:0 94:0 95:1 96:1 97:1 98:1 99:1 100:1 101:1 102:1 103:1 104:1 105:1 106:1 107:1 108:1 109:0 110:0 111:1 112:1 113:0 114:0 115:0 116:0 117:1 118:1 119:1 120:1 121:1 122:1 123:1 124:1 125:1 126:1 127:1 128:0 129:0 130:1 131:1 132:1 133:1 134:1 135:0 136:0 137:0 138:1 139:1 140:1 141:1 142:1 143:1 144:1 145:1 146:1 147:0 148:0 149:0 150:0 151:0 152:1 153:1 154:1 155:1 156:1 157:1 158:1 159:1 160:1 161:1 162:1 163:1 164:1 165:1 166:1 167:0 168:0 169:0 170:0 171:0 172:0 173:0 174:1 175:1 176:1 177:1 178:1 179:1 180:1 181:1 182:1 183:1 184:1 185:1 186:0 187:0 188:0 189:0 190:0 191:0 192:0 193:0 194:0 195:1 196:1 197:1 198:1 199:1 200:1 201:1 202:1 203:1 204:1 205:1 206:1 207:1 208:1 209:1 210:1 211:1 212:1 213:1 214:0 215:0 216:1 217:1 218:1 219:1 220:1 221:1 222:1 223:1 224:1 225:1 226:1 227:1 228:1 229:1 230:1 231:1 232:1 233:1 234:0 235:0 236:1 237:1 238:1 239:1 240:1 241:1 242:1 243:1 244:1 245:1 246:1 247:1 248:1 249:1 250:1 251:1 252:1 253:1 254:0 255:0 256:1 257:1 258:1 259:1 260:1 261:1 262:1 263:1 264:0 265:0 266:1 267:1 268:1 269:1 270:1 271:1 272:1 273:1 274:0 275:0 276:1 277:1 278:1 279:1 280:1 281:1 282:1 283:1 284:0 285:0 286:1 287:1 288:1 289:1 290:1 291:1 292:1 293:1 294:0 295:0 296:1 297:1 298:1 299:1 300:1 301:1 302:1 303:1 304:0 305:0 306:0 307:1 308:1 309:1 310:1 311:1 312:1 313:0 314:0 315:0 316:1 317:1 318:1 319:1 320:1 321:1 322:1 323:1 324:1 325:0 326:0 327:0 328:1 329:1 330:1 331:1 332:0 333:0 334:0 335:1 336:1 337:1 338:1 339:1 340:1 341:1 342:1 343:1 344:1 345:1 346:0 347:0 348:0 349:0 350:0 351:0 352:0 353:0 354:1 355:1 356:1 357:1 358:1 359:1 360:1 361:1 362:1 363:1 364:1 365:1 366:1 367:0 368:0 369:0 370:0 371:0 372:1 373:1 374:1 375:1 376:1 377:1 378:1 379:1 380:1 381:1 382:1 383:1 384:1 385:1 386:1 387:1 388:1 389:1 390:1 391:1 392:1 393:1 394:1 395:1 396:1 397:1 398:1 399:1 
0 0 0 0 3.412780004580375 0 0 0 0 0:1 1:1 2:1 3:1 4:1 5:1 6:1 7:1 8:1 9:1 10:1 11:1 12:1 13:1 14:1 15:1 16:1 17:1 18:1 19:1 20:1 21:1 22:1 23:1 24:1 25:1 26:1 27:1 28:1 29:1 30:1 31:1 32:1 33:1 34:1 35:1 36:1 37:1 38:1 39:1 40:1 41:1 42:1 43:1 44:1 45:1 46:1 47:1 48:1 49:1 50:1 51:1 52:1 53:1 54:1 55:1 56:1 57:1 58:1 59:1 60:1 61:1 62:1 63:1 64:1 65:1 66:1 67:1 68:1 69:1 70:1 71:1 72:1 73:1 74:1 75:1 76:1 77:1 78:1 79:1 80:1 81:1 82:1 83:1 84:1 85:1 86:1 87:1 88:1 89:0 90:0 91:1 92:1 93:1 94:1 95:1 96:1 97:1 98:1 99:1 100:1 101:1 102:1 103:1 104:1 105:1 106:1 107:1 108:0 109:0 110:0 111:0 112:0 113:0 114:0 115:0 116:1 117:1 118:1 119:1 120:1 121:1 122:1 123:1 124:1 125:1 126:1 127:1 128:0 129:0 130:0 131:0 132:0 133:0 134:0 135:0 136:1 137:1 138:1 139:1 140:1 141:1 142:1 143:1 144:1 145:1 146:1 147:1 148:0 149:0 150:1 151:1 152:1 153:0 154:0 155:0 156:1 157:1 158:1 159:1 160:1 161:1 162:1 163:1 164:1 165:1 166:1 167:0 168:0 169:0 170:0 171:0 172:0 173:1 174:1 175:1 176:1 177:1 178:1 179:1 180:1 181:1 182:1 183:1 184:1 185:1 186:1 187:0 188:0 189:0 190:0 191:0 192:0 193:0 194:1 195:1 196:1 197:1 198:1 199:1 200:1 201:1 202:1 203:1 204:1 205:1 206:1 207:0 208:1 209:1 210:1 211:1 212:0 213:0 214:1 215:1 216:1 217:1 218:1 219:1 220:1 221:1 222:1 223:1 224:1 225:1 226:1 227:1 228:1 229:1 230:1 231:1 232:0 233:0 234:1 235:1 236:1 237:1 238:1 239:1 240:1 241:1 242:1 243:1 244:1 245:1 246:1 247:1 248:1 249:1 250:1 251:1 252:0 253:0 254:1 255:1 256:1 257:1 258:1 259:1 260:1 261:1 262:1 263:1 264:1 265:1 266:0 267:1 268:1 269:1 270:1 271:1 272:0 273:0 274:1 275:1 276:1 277:1 278:1 279:1 280:1 281:1 282:1 283:1 284:1 285:1 286:0 287:0 288:0 289:0 290:0 291:0 292:0 293:1 294:1 295:1 296:1 297:1 298:1 299:1 300:1 301:1 302:1 303:1 304:1 305:1 306:1 307:0 308:0 309:0 310:0 311:0 312:0 313:1 314:1 315:1 316:1 317:1 318:1 319:1 320:1 321:1 322:1 323:1 324:1 325:1 326:1 327:1 328:0 329:0 330:0 331:1 332:1 333:1 334:1 335:1 336:1 337:1 338:1 339:1 340:1 341:1 342:1 343:1 344:1 345:1 346:1 347:1 348:1 349:1 350:1 351:1 352:1 353:1 354:1 355:1 356:1 357:1 358:1 359:1 360:1 361:1 362:1 363:1 364:1 365:1 366:1 367:1 368:1 369:1 370:1 371:1 372:1 373:1 374:1 375:1 376:1 377:1 378:1 379:1 380:1 381:1 382:1 383:1 384:1 385:1 386:1 387:1 388:1 389:1 390:1 391:1 392:1 393:1 394:1 395:1 396:1 397:1 398:1 399:1 
0 0 0 0 0 1.012563805465733 0 2.717674169915604 3.861801379411526 0:1 1:1 2:1 3:1 4:1 5:1 6:1 7:1 8:1 9:1 10:1 11:1 12:1 13:1 14:1 15:1 16:1 17:1 18:1 19:1 20:1 21:1 22:1 23:1 24:1 25:1 26:1 27:1 28:1 29:1 30:1 31:1 32:1 33:1 34:1 35:1 36:1 37:1 38:1 39:1 40:1 41:1 42:1 43:1 44:1 45:1 46:1 47:1 48:1 49:1 50:1 51:1 52:1 53:1 54:1 55:1 56:1 57:1 58:1 59:1 60:1 61:1 62:1 63:1 64:1 65:1 66:1 67:1 68:1 69:1 70:1 71:0 72:0 73:0 74:1 75:1 76:1 77:1 78:1 79:1 80:1 81:1 82:1 83:1 84:1 85:1 86:1 87:1 88:0 89:0 90:0 91:0 92:0 93:0 94:1 95:1 96:1 97:1 98:1 99:1 100:1 101:1 102:1 103:1 104:1 105:0 106:0 107:0 108:0 109:0 110:0 111:1 112:1 113:1 114:1 115:1 116:1 117:1 118:1 119:1 120:1 121:1 122:1 123:1 124:1 125:0 126:0 127:1 128:1 129:1 130:1 131:1 132:1 133:1 134:1 135:1 136:1 137:1 138:1 139:1 140:1 141:1 142:1 143:1 144:1 145:1 146:0 147:1 148:1 149:1 150:1 151:1 152:1 153:1 154:1 155:1 156:1 157:1 158:1 159:1 160:1 161:1 162:1 163:1 164:1 165:1 166:0 167:1 168:1 169:0 170:0 171:0 172:0 173:0 174:1 175:1 176:1 177:1 178:1 179:1 180:1 181:1 182:1 183:1 184:1 185:1 186:0 187:0 188:0 189:0 190:0 191:0 192:1 193:0 194:0 195:0 196:1 197:1 198:1 199:1 200:1 201:1 202:1 203:1 204:1 205:1 206:0 207:0 208:0 209:1 210:1 211:1 212:1 213:1 214:0 215:0 216:1 217:1 218:1 219:1 220:1 221:1 222:1 223:1 224:1 225:1 226:0 227:0 228:0 229:1 230:1 231:1 232:1 233:1 234:0 235:0 236:1 237:1 238:1 239:1 240:1 241:1 242:1 243:1 244:1 245:1 246:0 247:0 248:1 249:1 250:1 251:1 252:1 253:1 254:0 255:0 256:1 257:1 258:1 259:1 260:1 261:1 262:1 263:1 264:1 265:1 266:1 267:1 268:1 269:1 270:1 271:1 272:1 273:1 274:0 275:0 276:1 277:1 278:1 279:1 280:1 281:1 282:1 283:1 284:1 285:1 286:1 287:1 288:1 289:1 290:1 291:1 292:1 293:1 294:0 295:0 296:1 297:1 298:1 299:1 300:1 301:1 302:1 303:1 304:1 305:1 306:1 307:0 308:0 309:1 310:1 311:1 312:0 313:0 314:0 315:1 316:1 317:1 318:1 319:1 320:1 321:1 322:1 323:1 324:1 325:1 326:1 327:1 328:0 329:0 330:0 331:0 332:0 333:0 334:1 335:1 336:1 337:1 338:1 339:1 340:1 341:1 342:1 343:1 344:1 345:1 346:1 347:1 348:1 349:1 350:0 351:0 352:1 353:1 354:1 355:1 356:1 357:1 358:1 359:1 360:1 361:1 362:1 363:1 364:1 365:1 366:1 367:1 368:1 369:1 370:1 371:1 372:1 373:1 374:1 375:1 376:1 377:1 378:1 379:1 380:1 381:1 382:1 383:1 384:1 385:1 386:1 387:1 388:1 389:1 390:1 391:1 392:1 393:1 394:1 395:1 396:1 397:1 398:1 399:1 
0 0 0 0 1.174868282976197 0 0 0 0 0:1 1:1 2:1 3:1 4:1 5:1 6:1 7:1 8:1 9:1 10:1 11:1 12:1 13:1 14:1 15:1 16:1 17:1 18:1 19:1 20:1 21:1 22:1 23:1 24:1 25:1 26:1 27:1 28:1 29:1 30:1 31:1 32:1 33:1 34:1 35:1 36:1 37:1 38:1 39:1 40:1 41:1 42:1 43:1 44:1 45:1 46:1 47:1 48:1 49:1 50:1 51:1 52:1 53:1 54:1 55:1 56:1 57:1 58:1 59:1 60:1 61:1 62:1 63:1 64:1 65:1 66:1 67:1 68:1 69:1 70:1 71:1 72:1 73:1 74:1 75:1 76:1 77:1 78:1 79:1 80:1 81:1 82:1 83:1 84:1 85:1 86:1 87:1 88:1 89:1 90:1 91:0 92:0 93:1 94:1 95:1 96:1 97:1 98:1 99:1 100:1 101:1 102:1 103:1 104:1 105:1 106:1 107:1 108:0 109:0 110:0 111:0 112:0 113:1 114:1 115:1 116:1 117:1 118:1 119:1 120:1 121:1 122:1 123:1 124:1 125:1 126:0 127:0 128:0 129:0 130:1 131:1 132:1 133:1 134:1 135:1 136:1 137:1 138:1 139:1 140:1 141:1 142:1 143:1 144:1 145:1 146:0 147:0 148:1 149:1 150:1 151:1 152:1 153:1 154:1 155:1 156:1 157:1 158:1 159:1 160:1 161:1 162:1 163:1 164:1 165:1 166:0 167:0 168:1 169:0 170:0 171:0 172:0 173:0 174:1 175:1 176:1 177:1 178:1 179:1 180:1 181:1 182:1 183:1 184:1 185:1 186:1 187:0 188:0 189:0 190:0 191:0 192:0 193:0 194:1 195:1 196:1 197:1 198:1 199:1 200:1 201:1 202:1 203:1 204:1 205:1 206:1 207:0 208:0 209:1 210:1 211:1 212:1 213:0 214:0 215:1 216:1 217:1 218:1 219:1 220:1 221:1 222:1 223:1 224:1 225:1 226:1 227:0 228:0 229:1 230:1 231:1 232:1 233:0 234:0 235:1 236:1 237:1 238:1 239:1 240:1 241:1 242:1 243:1 244:1 245:1 246:1 247:0 248:1 249:1 250:1 251:1 252:1 253:0 254:0 255:1 256:1 257:1 258:1 259:1 260:1 261:1 262:1 263:1 264:1 265:1 266:1 267:1 268:1 269:1 270:1 271:1 272:1 273:0 274:0 275:1 276:1 277:1 278:1 279:1 280:1 281:1 282:1 283:1 284:1 285:1 286:1 287:1 288:1 289:1 290:1 291:1 292:0 293:0 294:1 295:1 296:1 297:1 298:1 299:1 300:1 301:1 302:1 303:1 304:1 305:1 306:1 307:1 308:0 309:0 310:0 311:0 312:0 313:0 314:1 315:1 316:1 317:1 318:1 319:1 320:1 321:1 322:1 323:1 324:1 325:1 326:1 327:1 328:1 329:1 330:0 331:0 332:1 333:1 334:1 335:1 336:1 337:1 338:1 339:1 340:1 341:1 342:1 343:1 344:1 345:1 346:1 347:1 348:1 349:1 350:1 351:1 352:1 353:1 354:1 355:1 356:1 357:1 358:1 359:1 360:1 361:1 362:1 363:1 364:1 365:1 366:1 367:1 368:1 369:1 370:1 371:1 372:1 373:1 374:1 375:1 376:1 377:1 378:1 379:1 380:1 381:1 382:1 383:1 384:1 385:1 386:1 387:1 388:1 389:1 390:1 391:1 392:1 393:1 394:1 395:1 396:1 397:1 398:1 399:1 
10.41784875224918 5.816192603131879 7.581994929593042 7.426596566509342 0 3.876407554176295 3.940879687292848 9.951435971826108 0 0:1 1:1 2:1 3:1 4:1 5:1 6:1 7:1 8:1 9:1 10:1 11:1 12:1 13:1 14:1 15:1 16:1 17:1 18:1 19:1 20:1 21:1 22:1 23:1 24:1 25:1 26:1 27:1 28:1 29:1 30:1 31:1 32:1 33:1 34:1 35:1 36:1 37:1 38:1 39:1 40:1 41:1 42:1 43:1 44:1 45:1 46:1 47:1 48:1 49:1 50:1 51:1 52:1 53:1 54:1 55:1 56:1 57:1 58:1 59:1 60:1 61:1 62:1 63:1 64:1 65:1 66:1 67:1 68:1 69:0 70:0 71:1 72:1 73:1 74:1 75:1 76:1 77:1 78:1 79:1 80:1 81:1 82:1 83:1 84:1 85:1 86:1 87:1 88:1 89:0 90:0 91:0 92:0 93:0 94:1 95:1 96:1 97:1 98:1 99:1 100:1 101:1 102:1 103:1 104:1 105:1 106:1 107:1 108:0 109:0 110:0 111:0 112:0 113:0 114:0 115:0 116:1 117:1 118:1 119:1 120:1 121:1 122:1 123:1 124:1 125:1 126:1 127:1 128:0 129:0 130:1 131:1 132:0 133:0 134:0 135:0 136:1 137:1 138:1 139:1 140:1 141:1 142:1 143:1 144:1 145:1 146:1 147:0 148:0 149:0 150:0 151:0 152:0 153:0 154:1 155:0 156:1 157:1 158:1 159:1 160:1 161:1 162:1 163:1 164:1 165:1 166:1 167:0 168:0 169:0 170:0 171:0 172:0 173:0 174:1 175:1 176:1 177:1 178:1 179:1 180:1 181:1 182:1 183:1 184:1 185:1 186:1 187:1 188:1 189:1 190:1 191:0 192:0 193:0 194:1 195:1 196:1 197:1 198:1 199:1 200:1 201:1 202:1 203:1 204:1 205:1 206:1 207:1 208:1 209:1 210:1 211:1 212:0 213:0 214:1 215:1 216:1 217:1 218:1 219:1 220:1 221:1 222:1 223:1 224:1 225:1 226:1 227:1 228:1 229:1 230:1 231:1 232:0 233:0 234:0 235:1 236:1 237:1 238:1 239:1 240:1 241:1 242:1 243:1 244:1 245:0 246:1 247:1 248:1 249:1 250:1 251:0 252:0 253:0 254:1 255:1 256:1 257:1 258:1 259:1 260:1 261:1 262:1 263:1 264:1 265:0 266:0 267:1 268:1 269:1 270:0 271:0 272:0 273:1 274:1 275:1 276:1 277:1 278:1 279:1 280:1 281:1 282:1 283:1 284:1 285:0 286:0 287:0 288:0 289:0 290:0 291:0 292:0 293:1 294:1 295:1 296:1 297:1 298:1 299:1 300:1 301:1 302:1 303:1 304:1 305:1 306:0 307:0 308:0 309:0 310:0 311:0 312:1 313:1 314:1 315:1 316:1 317:1 318:1 319:1 320:1 321:1 322:1 323:1 324:1 325:1 326:1 327:1 328:0 329:0 330:1 331:1 332:1 333:1 334:1 335:1 336:1 337:1 338:1 339:1 340:1 341:1 342:1 343:1 344:1 345:1 346:1 347:1 348:1 349:0 350:1 351:1 352:1 353:1 354:1 355:1 356:1 357:1 358:1 359:1 360:1 361:1 362:1 363:1 364:1 365:1 366:1 367:1 368:1 369:1 370:1 371:1 372:1 373:1 374:1 375:1 376:1 377:1 378:1 379:1 380:1 381:1 382:1 383:1 384:1 385:1 386:1 387:1 388:1 389:1 390:1 391:1 392:1 393:1 394:1 395:1 396:1 397:1 398:1 399:1 
0 0 0 0 0 0 1.805712571200409 3.789188856799908 0 0:1 1:1 2:1 3:1 4:1 5:1 6:1 7:1 8:1 9:1 10:1 11:1 12:1 13:1 14:1 15:1 16:1 17:1 18:1 19:1 20:1 21:1 22:1 23:1 24:1 25:1 26:1 27:1 28:1 29:1 30:1 31:1 32:1 33:1 34:1 35:1 36:1 37:1 38:1 39:1 40:1 41:1 42:1 43:1 44:1 45:1 46:1 47:1 48:1 49:1 50:1 51:1 52:1 53:1 54:1 55:1 56:1 57:1 58:1 59:1 60:1 61:1 62:1 63:1 64:1 65:1 66:1 67:1 68:1 69:1 70:1 71:1 72:1 73:1 74:1 75:1 76:1 77:1 78:1 79:1 80:1 81:1 82:1 83:1 84:1 85:1 86:1 87:1 88:1 89:1 90:1 91:1 92:1 93:1 94:1 95:1 96:1 97:1 98:1 99:1 100:1 101:1 102:1 103:1 104:1 105:1 106:1 107:1 108:1 109:1 110:1 111:0 112:0 113:1 114:1 115:1 116:1 117:1 118:1 119:1 120:1 121:1 122:1 123:1 124:1 125:1 126:1 127:1 128:1 129:0 130:0 131:0 132:1 133:1 134:1 135:1 136:1 137:1 138:1 139:1 140:1 141:1 142:1 143:1 144:1 145:1 146:0 147:0 148:0 149:0 150:1 151:1 152:1 153:1 154:1 155:1 156:1 157:1 158:1 159:1 160:1 161:1 162:1 163:1 164:1 165:1 166:0 167:0 168:1 169:1 170:1 171:0 172:0 173:0 174:1 175:1 176:1 177:1 178:1 179:1 180:1 181:1 182:1 183:1 184:1 185:1 186:1 187:0 188:1 189:0 190:0 191:0 192:0 193:0 194:0 195:1 196:1 197:1 198:1 199:1 200:1 201:1 202:1 203:1 204:1 205:1 206:1 207:0 208:0 209:0 210:0 211:1 212:1 213:0 214:0 215:0 216:1 217:1 218:1 219:1 220:1 221:1 222:1 223:1 224:1 225:1 226:1 227:1 228:0 229:0 230:1 231:1 232:1 233:1 234:0 235:0 236:1 237:1 238:1 239:1 240:1 241:1 242:1 243:1 244:1 245:1 246:1 247:1 248:0 249:0 250:1 251:1 252:1 253:1 254:0 255:0 256:1 257:1 258:1 259:1 260:1 261:1 262:1 263:1 264:1 265:1 266:1 267:1 268:1 269:1 270:1 271:1 272:1 273:1 274:0 275:0 276:1 277:1 278:1 279:1 280:1 281:1 282:1 283:1 284:1 285:1 286:1 287:1 288:1 289:1 290:1 291:1 292:1 293:1 294:0 295:0 296:1 297:1 298:1 299:1 300:1 301:1 302:1 303:1 304:1 305:1 306:1 307:1 308:1 309:1 310:1 311:1 312:1 313:0 314:0 315:0 316:1 317:1 318:1 319:1 320:1 321:1 322:1 323:1 324:1 325:1 326:1 327:1 328:1 329:1 330:0 331:0 332:0 333:0 334:1 335:1 336:1 337:1 338:1 339:1 340:1 341:1 342:1 343:1 344:1 345:1 346:1 347:1 348:1 349:1 350:1 351:1 352:1 353:1 354:1 355:1 356:1 357:1 358:1 359:1 360:1 361:1 362:1 363:1 364:1 365:1 366:1 367:1 368:1 369:1 370:1 371:1 372:1 373:1 374:1 375:1 376:1 377:1 378:1 379:1 380:1 381:1 382:1 383:1 384:1 385:1 386:1 387:1 388:1 389:1 390:1 391:1 392:1 393:1 394:1 395:1 396:1 397:1 398:1 399:1 
0 0 0 0 4.011732814972409 0 0 1.427305480576005 0 0:1 1:1 2:1 3:1 4:1 5:1 6:1 7:1 8:1 9:1 10:1 11:1 12:1 13:1 14:1 15:1 16:1 17:1 18:1 19:1 20:1 21:1 22:1 23:1 24:1 25:1 26:1 27:1 28:1 29:1 30:1 31:1 32:1 33:1 34:1 35:1 36:1 37:1 38:1 39:1 40:1 41:1 42:1 43:1 44:1 45:1 46:1 47:1 48:1 49:1 50:1 51:1 52:1 53:1 54:1 55:1 56:1 57:1 58:1 59:1 60:1 61:1 62:1 63:1 64:1 65:1 66:1 67:1 68:1 69:1 70:0 71:0 72:0 73:0 74:1 75:1 76:1 77:1 78:1 79:1 80:1 81:1 82:1 83:1 84:1 85:1 86:1 87:1 88:0 89:0 90:0 91:0 92:0 93:1 94:1 95:1 96:1 97:1 98:1 99:1 100:1 101:1 102:1 103:1 104:1 105:0 106:0 107:0 108:0 109:0 110:0 111:1 112:1 113:1 114:1 115:1 116:1 117:1 118:1 119:1 120:1 121:1 122:1 123:1 124:1 125:0 126:0 127:0 128:1 129:1 130:1 131:1 132:1 133:1 134:1 135:1 136:1 137:1 138:1 139:1 140:1 141:1 142:1 143:1 144:1 145:1 146:0 147:0 148:1 149:1 150:1 151:0 152:0 153:0 154:1 155:1 156:1 157:1 158:1 159:1 160:1 161:1 162:1 163:1 164:1 165:1 166:0 167:0 168:1 169:0 170:0 171:0 172:0 173:0 174:0 175:0 176:1 177:1 178:1 179:1 180:1 181:1 182:1 183:1 184:1 185:1 186:0 187:0 188:0 189:0 190:0 191:0 192:1 193:0 194:0 195:0 196:0 197:1 198:1 199:1 200:1 201:1 202:1 203:1 204:1 205:1 206:1 207:0 208:0 209:0 210:1 211:1 212:1 213:1 214:0 215:0 216:0 217:1 218:1 219:1 220:1 221:1 222:1 223:1 224:1 225:1 226:1 227:0 228:0 229:0 230:1 231:1 232:1 233:1 234:1 235:0 236:0 237:1 238:1 239:1 240:1 241:1 242:1 243:1 244:1 245:1 246:1 247:0 248:0 249:1 250:1 251:1 252:1 253:1 254:1 255:0 256:0 257:1 258:1 259:1 260:1 261:1 262:1 263:1 264:1 265:1 266:1 267:1 268:1 269:1 270:1 271:1 272:1 273:1 274:1 275:0 276:0 277:1 278:1 279:1 280:1 281:1 282:1 283:1 284:1 285:1 286:1 287:1 288:1 289:1 290:1 291:1 292:1 293:1 294:0 295:0 296:0 297:1 298:1 299:1 300:1 301:1 302:1 303:1 304:1 305:1 306:1 307:1 308:0 309:0 310:0 311:1 312:0 313:0 314:0 315:0 316:1 317:1 318:1 319:1 320:1 321:1 322:1 323:1 324:1 325:1 326:1 327:1 328:0 329:0 330:0 331:0 332:0 333:0 334:0 335:1 336:1 337:1 338:1 339:1 340:1 341:1 342:1 343:1 344:1 345:1 346:1 347:1 348:1 349:1 350:0 351:0 352:1 353:1 354:1 355:1 356:1 357:1 358:1 359:1 360:1 361:1 362:1 363:1 364:1 365:1 366:1 367:1 368:1 369:1 370:1 371:1 372:1 373:1 374:1 375:1 376:1 377:1 378:1 379:1 380:1 381:1 382:1 383:1 384:1 385:1 386:1 387:1 388:1 389:1 390:1 391:1 392:1 393:1 394:1 395:1 396:1 397:1 398:1 399:1 
0 2.333181960332026 0 0 0 0 0 0 0 0:1 1:1 2:1 3:1 4:1 5:1 6:1 7:1 8:1 9:1 10:1 11:1 12:1 13:1 14:1 15:1 16:1 17:1 18:1 19:1 20:1 21:1 22:1 23:1 24:1 25:1 26:1 27:1 28:1 29:1 30:1 31:1 32:1 33:1 34:1 35:1 36:1 37:1 38:1 39:1 40:1 41:1 42:1 43:1 44:1 45:1 46:1 47:1 48:1 49:0 50:0 51:0 52:1 53:1 54:1 55:1 56:1 57:1 58:1 59:1 60:1 61:1 62:1 63:1 64:1 65:1 66:1 67:1 68:1 69:0 70:0 71:0 72:0 73:0 74:1 75:1 76:1 77:1 78:1 79:1 80:1 81:1 82:1 83:1 84:1 85:1 86:1 87:1 88:1 89:0 90:0 91:1 92:0 93:0 94:0 95:0 96:1 97:1 98:1 99:1 100:1 101:1 102:1 103:1 104:1 105:1 106:1 107:1 108:0 109:0 110:0 111:1 112:1 113:1 114:0 115:0 116:0 117:0 118:1 119:1 120:1 121:1 122:1 123:1 124:1 125:1 126:1 127:0 128:0 129:0 130:1 131:1 132:1 133:1 134:1 135:1 136:0 137:0 138:1 139:1 140:1 141:1 142:1 143:1 144:1 145:1 146:1 147:0 148:0 149:0 150:1 151:1 152:1 153:1 154:1 155:1 156:1 157:1 158:1 159:1 160:1 161:1 162:1 163:1 164:1 165:1 166:0 167:0 168:0 169:0 170:0 171:0 172:0 173:1 174:1 175:1 176:1 177:1 178:1 179:1 180:1 181:1 182:1 183:1 184:1 185:0 186:0 187:0 188:0 189:1 190:0 191:0 192:0 193:0 194:1 195:1 196:1 197:1 198:1 199:1 200:1 201:1 202:1 203:1 204:1 205:1 206:1 207:1 208:1 209:1 210:1 211:1 212:1 213:0 214:0 215:1 216:1 217:1 218:1 219:1 220:1 221:1 222:1 223:1 224:1 225:1 226:1 227:1 228:1 229:1 230:1 231:1 232:1 233:0 234:0 235:1 236:1 237:1 238:1 239:1 240:1 241:1 242:1 243:1 244:1 245:1 246:1 247:1 248:1 249:1 250:1 251:1 252:1 253:1 254:0 255:1 256:1 257:1 258:1 259:1 260:1 261:1 262:1 263:0 264:0 265:1 266:1 267:1 268:1 269:1 270:1 271:1 272:1 273:0 274:0 275:1 276:1 277:1 278:1 279:1 280:1 281:1 282:1 283:0 284:0 285:0 286:1 287:1 288:1 289:1 290:1 291:1 292:1 293:0 294:0 295:1 296:1 297:1 298:1 299:1 300:1 301:1 302:1 303:0 304:0 305:0 306:1 307:1 308:1 309:1 310:1 311:1 312:0 313:0 314:0 315:1 316:1 317:1 318:1 319:1 320:1 321:1 322:1 323:1 324:0 325:0 326:0 327:1 328:1 329:1 330:1 331:0 332:0 333:0 334:1 335:1 336:1 337:1 338:1 339:1 340:1 341:1 342:1 343:1 344:1 345:0 346:0 347:0 348:0 349:0 350:0 351:0 352:0 353:1 354:1 355:1 356:1 357:1 358:1 359:1 360:1 361:1 362:1 363:1 364:1 365:1 366:1 367:0 368:0 369:0 370:0 371:1 372:1 373:1 374:1 375:1 376:1 377:1 378:1 379:1 380:1 381:1 382:1 383:1 384:1 385:1 386:1 387:1 388:1 389:1 390:1 391:1 392:1 393:1 394:1 395:1 396:1 397:1 398:1 399:1 
0 0 0 2.390345547983622 0.1166162900527732 0 0.9453428689942065 0 0 0:1 1:1 2:1 3:1 4:1 5:1 6:1 7:1 8:1 9:1 10:1 11:1 12:1 13:1 14:1 15:1 16:1 17:1 18:1 19:1 20:1 21:1 22:1 23:1 24:1 25:1 26:1 27:1 28:1 29:1 30:1 31:1 32:1 33:1 34:1 35:1 36:1 37:1 38:1 39:1 40:1 41:1 42:1 43:1 44:1 45:1 46:1 47:1 48:1 49:1 50:1 51:1 52:1 53:1 54:1 55:1 56:1 57:1 58:1 59:1 60:1 61:1 62:1 63:1 64:1 65:1 66:1 67:0 68:0 69:1 70:1 71:1 72:1 73:1 74:1 75:1 76:1 77:1 78:1 79:1 80:1 81:1 82:1 83:1 84:1 85:1 86:1 87:0 88:0 89:0 90:0 91:0 92:1 93:1 94:1 95:1 96:1 97:1 98:1 99:1 100:1 101:1 102:1 103:1 104:1 105:1 106:1 107:0 108:0 109:0 110:0 111:0 112:0 113:0 114:0 115:0 116:1 117:1 118:1 119:1 120:1 121:1 122:1 123:1 124:1 125:1 126:0 127:0 128:0 129:0 130:0 131:0 132:0 133:0 134:0 135:0 136:0 137:1 138:1 139:1 140:1 141:1 142:1 143:1 144:1 145:1 146:0 147:0 148:1 149:1 150:0 151:1 152:0 153:0 154:0 155:0 156:1 157:1 158:1 159:1 160:1 161:1 162:1 163:1 164:1 165:0 166:0 167:0 168:0 169:0 170:0 171:0 172:1 173:1 174:1 175:0 176:0 177:1 178:1 179:1 180:1 181:1 182:1 183:1 184:1 185:0 186:0 187:0 188:0 189:0 190:0 191:0 192:0 193:1 194:1 195:1 196:1 197:1 198:1 199:1 200:1 201:1 202:1 203:1 204:1 205:0 206:0 207:0 208:0 209:0 210:0 211:0 212:0 213:0 214:1 215:1 216:1 217:1 218:1 219:1 220:1 221:1 222:1 223:1 224:1 225:0 226:0 227:0 228:1 229:0 230:1 231:0 232:0 233:0 234:0 235:1 236:1 237:1 238:1 239:1 240:1 241:1 242:1 243:1 244:1 245:1 246:1 247:1 248:1 249:1 250:1 251:1 252:0 253:0 254:0 255:0 256:1 257:1 258:1 259:1 260:1 261:1 262:1 263:1 264:0 265:0 266:1 267:1 268:1 269:1 270:1 271:1 272:0 273:0 274:0 275:0 276:1 277:1 278:1 279:1 280:1 281:1 282:1 283:1 284:0 285:0 286:1 287:1 288:1 289:1 290:1 291:1 292:0 293:0 294:1 295:0 296:1 297:1 298:1 299:1 300:1 301:1 302:1 303:1 304:0 305:0 306:0 307:0 308:1 309:1 310:0 311:0 312:0 313:0 314:1 315:0 316:1 317:1 318:1 319:1 320:1 321:1 322:1 323:1 324:1 325:0 326:0 327:0 328:0 329:0 330:0 331:0 332:0 333:1 334:0 335:0 336:1 337:1 338:1 339:1 340:1 341:1 342:1 343:1 344:1 345:1 346:0 347:0 348:0 349:0 350:0 351:1 352:1 353:1 354:1 355:1 356:1 357:1 358:1 359:1 360:1 361:1 362:1 363:1 364:1 365:1 366:1 367:1 368:0 369:0 370:0 371:0 372:0 373:1 374:1 375:1 376:1 377:1 378:1 379:1 380:1 381:1 382:1 383:1 384:1 385:1 386:1 387:1 388:1 389:1 390:1 391:1 392:1 393:1 394:1 395:1 396:1 397:1 398:1 399:1 
0 0 0 0 8.243157768528171 0 0 0 0 0:1 1:1 2:1 3:1 4:1 5:1 6:1 7:1 8:1 9:1 10:1 11:1 12:1 13:1 14:1 15:1 16:1 17:1 18:1 19:1 20:1 21:1 22:1 23:1 24:1 25:1 26:1 27:1 28:1 29:1 30:1 31:1 32:1 33:1 34:1 35:1 36:1 37:1 38:1 39:1 40:1 41:1 42:1 43:1 44:1 45:1 46:1 47:1 48:1 49:1 50:1 51:1 52:1 53:1 54:1 55:1 56:1 57:1 58:1 59:1 60:1 61:1 62:1 63:1 64:1 65:1 66:1 67:1 68:1 69:1 70:1 71:1 72:1 73:1 74:1 75:1 76:1 77:1 78:1 79:1 80:1 81:1 82:1 83:1 84:1 85:1 86:1 87:1 88:1 89:0 90:0 91:0 92:1 93:1 94:1 95:1 96:1 97:1 98:1 99:1 100:1 101:1 102:1 103:1 104:1 105:1 106:1 107:1 108:1 109:0 110:0 111:0 112:0 113:0 114:1 115:1 116:1 117:1 118:1 119:1 120:1 121:1 122:1 123:1 124:1 125:1 126:1 127:1 128:0 129:0 130:1 131:0 132:0 133:0 134:0 135:0 136:1 137:1 138:1 139:1 140:1 141:1 142:1 143:1 144:1 145:1 146:1 147:0 148:0 149:0 150:1 151:1 152:1 153:0 154:0 155:0 156:0 157:0 158:1 159:1 160:1 161:1 162:1 163:1 164:1 165:1 166:1 167:0 168:0 169:0 170:1 171:1 172:1 173:1 174:1 175:0 176:0 177:0 178:1 179:1 180:1 181:1 182:1 183:1 184:1 185:1 186:0 187:0 188:0 189:0 190:0 191:0 192:0 193:1 194:1 195:1 196:1 197:1 198:1 199:1 200:1 201:1 202:1 203:1 204:1 205:1 206:0 207:0 208:0 209:0 210:0 211:0 212:0 213:0 214:1 215:1 216:1 217:1 218:1 219:1 220:1 221:1 222:1 223:1 224:1 225:1 226:1 227:0 228:1 229:1 230:1 231:1 232:0 233:0 234:0 235:1 236:1 237:1 238:1 239:1 240:1 241:1 242:1 243:1 244:1 245:1 246:1 247:1 248:1 249:1 250:1 251:1 252:1 253:0 254:0 255:1 256:1 257:1 258:1 259:1 260:1 261:1 262:1 263:1 264:0 265:0 266:1 267:1 268:1 269:1 270:1 271:1 272:1 273:0 274:0 275:1 276:1 277:1 278:1 279:1 280:1 281:1 282:1 283:1 284:0 285:0 286:1 287:1 288:1 289:1 290:1 291:1 292:1 293:0 294:0 295:1 296:1 297:1 298:1 299:1 300:1 301:1 302:1 303:1 304:1 305:0 306:0 307:0 308:1 309:1 310:1 311:0 312:0 313:0 314:1 315:1 316:1 317:1 318:1 319:1 320:1 321:1 322:1 323:1 324:1 325:1 326:0 327:0 328:0 329:0 330:0 331:0 332:0 333:1 334:1 335:1 336:1 337:1 338:1 339:1 340:1 341:1 342:1 343:1 344:1 345:1 346:1 347:0 348:0 349:0 350:0 351:0 352:1 353:1 354:1 355:1 356:1 357:1 358:1 359:1 360:1 361:1 362:1 363:1 364:1 365:1 366:1 367:1 368:1 369:1 370:1 371:1 372:1 373:1 374:1 375:1 376:1 377:1 378:1 379:1 380:1 381:1 382:1 383:1 384:1 385:1 386:1 387:1 388:1 389:1 390:1 391:1 392:1 393:1 394:1 395:1 396:1 397:1 398:1 399:1 
0.5082388723932874 0 0 0 0 0 0 0 0 0:1 1:1 2:1 3:1 4:1 5:1 6:1 7:1 8:1 9:1 10:1 11:1 12:1 13:1 14:1 15:1 16:1 17:1 18:1 19:1 20:1 21:1 22:1 23:1 24:1 25:1 26:1 27:1 28:1 29:1 30:1 31:1 32:1 33:1 34:1 35:1 36:1 37:1 38:1 39:1 40:1 41:1 42:1 43:1 44:1 45:1 46:1 47:0 48:0 49:1 50:1 51:1 52:1 53:1 54:1 55:1 56:1 57:1 58:1 59:1 60:1 61:1 62:1 63:1 64:1 65:1 66:1 67:0 68:0 69:0 70:0 71:0 72:0 73:0 74:0 75:0 76:1 77:1 78:1 79:1 80:1 81:1 82:1 83:1 84:1 85:1 86:1 87:0 88:0 89:0 90:0 91:0 92:0 93:0 94:0 95:0 96:1 97:1 98:1 99:1 100:1 101:1 102:1 103:1 104:1 105:1 106:1 107:0 108:0 109:1 110:1 111:1 112:1 113:1 114:1 115:1 116:1 117:1 118:1 119:1 120:1 121:1 122:1 123:1 124:1 125:1 126:0 127:0 128:1 129:1 130:1 131:0 132:1 133:1 134:1 135:1 136:1 137:1 138:1 139:1 140:1 141:1 142:1 143:1 144:1 145:1 146:0 147:0 148:0 149:0 150:0 151:0 152:0 153:0 154:1 155:1 156:1 157:1 158:1 159:1 160:1 161:1 162:1 163:1 164:1 165:1 166:0 167:0 168:0 169:0 170:0 171:0 172:0 173:0 174:0 175:0 176:1 177:1 178:1 179:1 180:1 181:1 182:1 183:1 184:1 185:1 186:0 187:0 188:0 189:1 190:1 191:1 192:1 193:1 194:0 195:0 196:1 197:1 198:1 199:1 200:1 201:1 202:1 203:1 204:1 205:1 206:0 207:0 208:1 209:1 210:1 211:1 212:1 213:1 214:0 215:0 216:1 217:1 218:1 219:1 220:1 221:1 222:1 223:1 224:1 225:1 226:1 227:1 228:1 229:1 230:1 231:1 232:1 233:1 234:1 235:0 236:0 237:1 238:1 239:1 240:1 241:1 242:1 243:1 244:1 245:1 246:1 247:1 248:1 249:1 250:1 251:1 252:1 253:1 254:1 255:0 256:1 257:1 258:1 259:1 260:1 261:1 262:1 263:1 264:1 265:1 266:1 267:1 268:1 269:1 270:1 271:1 272:1 273:1 274:0 275:0 276:1 277:1 278:1 279:1 280:1 281:1 282:1 283:1 284:1 285:1 286:0 287:1 288:1 289:1 290:1 291:1 292:1 293:1 294:0 295:0 296:1 297:1 298:1 299:1 300:1 301:1 302:1 303:1 304:1 305:0 306:0 307:0 308:1 309:1 310:1 311:1 312:1 313:0 314:0 315:0 316:1 317:1 318:1 319:1 320:1 321:1 322:1 323:1 324:1 325:1 326:0 327:0 328:0 329:1 330:1 331:0 332:0 333:0 334:0 335:1 336:1 337:1 338:1 339:1 340:1 341:1 342:1 343:1 344:1 345:1 346:1 347:0 348:0 349:0 350:0 351:0 352:0 353:0 354:1 355:1 356:1 357:1 358:1 359:1 360:1 361:1 362:1 363:1 364:1 365:1 366:1 367:1 368:1 369:0 370:0 371:1 372:1 373:1 374:1 375:1 376:1 377:1 378:1 379:1 380:1 381:1 382:1 383:1 384:1 385:1 386:1 387:1 388:1 389:1 390:1 391:1 392:1 393:1 394:1 395:1 396:1 397:1 398:1 399:1 
0.7656092252736527 0 0 0 0 0 0 0 0 0:1 1:1 2:1 3:1 4:1 5:1 6:1 7:1 8:1 9:1 10:1 11:1 12:1 13:1 14:1 15:1 16:1 17:1 18:1 19:1 20:1 21:1 22:1 23:1 24:1 25:1 26:1 27:1 28:1 29:1 30:1 31:1 32:1 33:1 34:1 35:1 36:1 37:1 38:1 39:1 40:1 41:1 42:1 43:1 44:1 45:1 46:1 47:1 48:1 49:1 50:1 51:1 52:1 53:1 54:1 55:1 56:1 57:1 58:1 59:1 60:1 61:1 62:1 63:1 64:1 65:1 66:1 67:1 68:1 69:1 70:1 71:1 72:1 73:1 74:1 75:1 76:1 77:1 78:1 79:1 80:1 81:1 82:1 83:1 84:1 85:1 86:1 87:1 88:1 89:0 90:0 91:1 92:1 93:1 94:1 95:1 96:1 97:1 98:1 99:1 100:1 101:1 102:1 103:1 104:1 105:1 106:1 107:1 108:1 109:0 110:0 111:0 112:0 113:0 114:1 115:1 116:1 117:1 118:1 119:1 120:1 121:1 122:1 123:1 124:1 125:1 126:1 127:1 128:1 129:0 130:0 131:0 132:0 133:0 134:0 135:1 136:1 137:1 138:1 139:1 140:1 141:1 142:1 143:1 144:1 145:1 146:1 147:1 148:0 149:0 150:1 151:1 152:1 153:0 154:0 155:0 156:1 157:1 158:1 159:1 160:1 161:1 162:1 163:1 164:1 165:1 166:1 167:1 168:0 169:0 170:0 171:0 172:1 173:1 174:1 175:0 176:1 177:1 178:1 179:1 180:1 181:1 182:1 183:1 184:1 185:1 186:1 187:0 188:0 189:0 190:0 191:0 192:0 193:0 194:1 195:1 196:1 197:1 198:1 199:1 200:1 201:1 202:1 203:1 204:1 205:1 206:1 207:1 208:1 209:1 210:1 211:1 212:0 213:0 214:1 215:1 216:1 217:1 218:1 219:1 220:1 221:1 222:1 223:1 224:1 225:1 226:1 227:1 228:1 229:1 230:1 231:1 232:0 233:0 234:1 235:1 236:1 237:1 238:1 239:1 240:1 241:1 242:1 243:1 244:1 245:1 246:1 247:1 248:1 249:1 250:1 251:1 252:0 253:0 254:1 255:1 256:1 257:1 258:1 259:1 260:1 261:1 262:1 263:1 264:1 265:0 266:1 267:1 268:1 269:1 270:1 271:1 272:0 273:0 274:1 275:1 276:1 277:1 278:1 279:1 280:1 281:1 282:1 283:1 284:1 285:0 286:0 287:1 288:1 289:1 290:1 291:0 292:0 293:1 294:1 295:1 296:1 297:1 298:1 299:1 300:1 301:1 302:1 303:1 304:1 305:0 306:0 307:0 308:0 309:0 310:0 311:0 312:0 313:1 314:1 315:1 316:1 317:1 318:1 319:1 320:1 321:1 322:1 323:1 324:1 325:1 326:0 327:0 328:0 329:0 330:0 331:1 332:1 333:1 334:1 335:1 336:1 337:1 338:1 339:1 340:1 341:1 342:1 343:1 344:1 345:1 346:1 347:1 348:1 349:1 350:1 351:1 352:1 353:1 354:1 355:1 356:1 357:1 358:1 359:1 360:1 361:1 362:1 363:1 364:1 365:1 366:1 367:1 368:1 369:1 370:1 371:1 372:1 373:1 374:1 375:1 376:1 377:1 378:1 379:1 380:1 381:1 382:1 383:1 384:1 385:1 386:1 387:1 388:1 389:1 390:1 391:1 392:1 393:1 394:1 395:1 396:1 397:1 398:1 399:1 
0 0 0 0 0 0 0 0 6.10106413078912 0:1 1:1 2:1 3:1 4:1 5:1 6:1 7:1 8:1 9:1 10:1 11:1 12:1 13:1 14:1 15:1 16:1 17:1 18:1 19:1 20:1 21:1 22:1 23:1 24:1 25:1 26:1 27:1 28:1 29:1 30:1 31:1 32:1 33:1 34:1 35:1 36:1 37:1 38:1 39:1 40:1 41:1 42:1 43:1 44:1 45:1 46:1 47:1 48:1 49:1 50:1 51:1 52:1 53:1 54:1 55:1 56:1 57:1 58:1 59:1 60:1 61:1 62:1 63:1 64:1 65:1 66:1 67:1 68:1 69:1 70:1 71:1 72:1 73:1 74:1 75:1 76:1 77:1 78:1 79:1 80:1 81:1 82:1 83:1 84:1 85:1 86:1 87:1 88:1 89:1 90:1 91:1 92:1 93:1 94:1 95:1 96:1 97:1 98:1 99:1 100:1 101:1 102:1 103:1 104:1 105:1 106:1 107:1 108:1 109:1 110:1 111:0 112:0 113:0 114:1 115:1 116:1 117:1 118:1 119:1 120:1 121:1 122:1 123:1 124:1 125:1 126:1 127:0 128:0 129:0 130:0 131:0 132:0 133:0 134:1 135:1 136:1 137:1 138:1 139:1 140:1 141:1 142:1 143:1 144:1 145:1 146:1 147:0 148:0 149:1 150:0 151:1 152:1 153:1 154:1 155:1 156:1 157:1 158:1 159:1 160:1 161:1 162:1 163:1 164:1 165:1 166:1 167:0 168:0 169:1 170:1 171:0 172:1 173:1 174:1 175:1 176:1 177:1 178:1 179:1 180:1 181:1 182:1 183:1 184:1 185:1 186:1 187:0 188:0 189:0 190:0 191:0 192:0 193:0 194:1 195:1 196:1 197:1 198:1 199:1 200:1 201:1 202:1 203:1 204:1 205:1 206:1 207:0 208:0 209:0 210:0 211:1 212:0 213:0 214:0 215:1 216:1 217:1 218:1 219:1 220:1 221:1 222:1 223:1 224:1 225:1 226:1 227:0 228:0 229:1 230:1 231:1 232:1 233:0 234:0 235:1 236:1 237:1 238:1 239:1 240:1 241:1 242:1 243:1 244:1 245:1 246:1 247:1 248:0 249:1 250:1 251:1 252:1 253:0 254:0 255:1 256:1 257:1 258:1 259:1 260:1 261:1 262:1 263:1 264:1 265:1 266:1 267:1 268:1 269:1 270:1 271:1 272:1 273:0 274:0 275:1 276:1 277:1 278:1 279:1 280:1 281:1 282:1 283:1 284:1 285:1 286:1 287:1 288:1 289:1 290:1 291:1 292:1 293:0 294:0 295:1 296:1 297:1 298:1 299:1 300:1 301:1 302:1 303:1 304:1 305:1 306:1 307:1 308:0 309:0 310:1 311:0 312:0 313:0 314:1 315:1 316:1 317:1 318:1 319:1 320:1 321:1 322:1 323:1 324:1 325:1 326:1 327:1 328:0 329:0 330:0 331:0 332:0 333:0 334:1 335:1 336:1 337:1 338:1 339:1 340:1 341:1 342:1 343:1 344:1 345:1 346:1 347:1 348:1 349:1 350:1 351:1 352:1 353:1 354:1 355:1 356:1 357:1 358:1 359:1 360:1 361:1 362:1 363:1 364:1 365:1 366:1 367:1 368:1 369:1 370:1 371:1 372:1 373:1 374:1 375:1 376:1 377:1 378:1 379:1 380:1 381:1 382:1 383:1 384:1 385:1 386:1 387:1 388:1 389:1 390:1 391:1 392:1 393:1 394:1 395:1 396:1 397:1 398:1 399:1 
0 0 0 0.2948750290369017 0 0 0 0 0 0:1 1:1 2:1 3:1 4:1 5:1 6:1 7:1 8:1 9:1 10:1 11:1 12:1 13:1 14:1 15:1 16:1 17:1 18:1 19:1 20:1 21:1 22:1 23:1 24:1 25:1 26:1 27:1 28:1 29:1 30:1 31:1 32:1 33:1 34:1 35:1 36:1 37:1 38:1 39:1 40:1 41:1 42:1 43:1 44:1 45:1 46:1 47:1 48:1 49:0 50:0 51:0 52:1 53:1 54:1 55:1 56:1 57:1 58:1 59:1 60:1 61:1 62:1 63:1 64:1 65:1 66:1 67:1 68:0 69:0 70:0 71:0 72:1 73:1 74:1 75:1 76:1 77:1 78:1 79:1 80:1 81:1 82:1 83:1 84:1 85:0 86:0 87:0 88:0 89:0 90:1 91:1 92:1 93:1 94:1 95:1 96:1 97:1 98:1 99:1 100:1 101:1 102:1 103:0 104:0 105:0 106:0 107:0 108:1 109:1 110:1 111:1 112:1 113:1 114:1 115:1 116:1 117:1 118:1 119:1 120:1 121:1 122:1 123:0 124:0 125:0 126:1 127:1 128:1 129:1 130:1 131:1 132:1 133:1 134:1 135:1 136:1 137:1 138:1 139:1 140:1 141:1 142:1 143:1 144:0 145:0 146:0 147:1 148:1 149:1 150:1 151:0 152:0 153:0 154:1 155:1 156:1 157:1 158:1 159:1 160:1 161:1 162:1 163:1 164:1 165:0 166:0 167:1 168:1 169:0 170:0 171:0 172:0 173:0 174:0 175:0 176:1 177:1 178:1 179:1 180:1 181:1 182:1 183:1 184:1 185:0 186:0 187:1 188:0 189:0 190:0 191:1 192:1 193:0 194:0 195:0 196:1 197:1 198:1 199:1 200:1 201:1 202:1 203:1 204:1 205:0 206:0 207:0 208:0 209:0 210:1 211:1 212:1 213:1 214:0 215:0 216:0 217:1 218:1 219:1 220:1 221:1 222:1 223:1 224:1 225:1 226:0 227:0 228:0 229:1 230:1 231:1 232:1 233:1 234:1 235:0 236:0 237:0 238:1 239:1 240:1 241:1 242:1 243:1 244:1 245:1 246:0 247:0 248:0 249:1 250:1 251:1 252:1 253:1 254:1 255:0 256:0 257:0 258:1 259:1 260:1 261:1 262:1 263:1 264:1 265:1 266:0 267:0 268:0 269:1 270:1 271:1 272:1 273:1 274:1 275:1 276:0 277:0 278:1 279:1 280:1 281:1 282:1 283:1 284:1 285:1 286:1 287:1 288:1 289:1 290:1 291:1 292:1 293:1 294:1 295:1 296:0 297:0 298:1 299:1 300:1 301:1 302:1 303:1 304:1 305:1 306:1 307:1 308:1 309:1 310:1 311:1 312:1 313:1 314:1 315:0 316:0 317:1 318:1 319:1 320:1 321:1 322:1 323:1 324:1 325:1 326:1 327:1 328:1 329:1 330:1 331:1 332:1 333:1 334:0 335:0 336:0 337:1 338:1 339:1 340:1 341:1 342:1 343:1 344:1 345:1 346:1 347:1 348:1 349:0 350:0 351:1 352:1 353:0 354:0 355:0 356:1 357:1 358:1 359:1 360:1 361:1 362:1 363:1 364:1 365:1 366:1 367:1 368:1 369:0 370:0 371:0 372:0 373:0 374:0 375:1 376:1 377:1 378:1 379:1 380:1 381:1 382:1 383:1 384:1 385:1 386:1 387:1 388:1 389:1 390:0 391:0 392:0 393:0 394:1 395:1 396:1 397:1 398:1 399:1 
0 0 1.574052956557907 0 4.725351964658591 4.128217996299512 0 0 0 0:1 1:1 2:1 3:1 4:1 5:1 6:1 7:1 8:1 9:1 10:1 11:1 12:1 13:1 14:1 15:1 16:1 17:1 18:1 19:1 20:1 21:1 22:1 23:1 24:1 25:1 26:1 27:1 28:1 29:1 30:1 31:1 32:1 33:1 34:1 35:1 36:1 37:1 38:1 39:1 40:1 41:1 42:1 43:1 44:1 45:1 46:1 47:1 48:1 49:1 50:1 51:1 52:1 53:1 54:1 55:1 56:1 57:1 58:1 59:1 60:1 61:1 62:1 63:1 64:1 65:1 66:1 67:1 68:1 69:1 70:1 71:1 72:1 73:1 74:1 75:1 76:1 77:1 78:1 79:1 80:1 81:1 82:1 83:1 84:1 85:1 86:1 87:1 88:1 89:0 90:0 91:1 92:1 93:1 94:1 95:1 96:1 97:1 98:1 99:1 100:1 101:1 102:1 103:1 104:1 105:1 106:1 107:1 108:1 109:0 110:0 111:0 112:0 113:1 114:1 115:1 116:1 117:1 118:1 119:1 120:1 121:1 122:1 123:1 124:1 125:1 126:1 127:1 128:0 129:0 130:0 131:0 132:0 133:0 134:0 135:1 136:1 137:1 138:1 139:1 140:1 141:1 142:1 143:1 144:1 145:1 146:1 147:0 148:0 149:1 150:1 151:1 152:0 153:0 154:0 155:0 156:1 157:1 158:1 159:1 160:1 161:1 162:1 163:1 164:1 165:1 166:1 167:0 168:0 169:0 170:0 171:0 172:1 173:1 174:0 175:0 176:1 177:1 178:1 179:1 180:1 181:1 182:1 183:1 184:1 185:1 186:0 187:0 188:0 189:0 190:0 191:0 192:0 193:1 194:1 195:1 196:1 197:1 198:1 199:1 200:1 201:1 202:1 203:1 204:1 205:1 206:1 207:1 208:1 209:1 210:1 211:0 212:0 213:0 214:1 215:1 216:1 217:1 218:1 219:1 220:1 221:1 222:1 223:1 224:1 225:1 226:1 227:1 228:1 229:1 230:1 231:1 232:0 233:0 234:1 235:1 236:1 237:1 238:1 239:1 240:1 241:1 242:1 243:1 244:1 245:0 246:1 247:1 248:1 249:1 250:1 251:0 252:0 253:0 254:1 255:1 256:1 257:1 258:1 259:1 260:1 261:1 262:1 263:1 264:1 265:0 266:0 267:1 268:1 269:1 270:1 271:0 272:0 273:1 274:1 275:1 276:1 277:1 278:1 279:1 280:1 281:1 282:1 283:1 284:1 285:0 286:0 287:0 288:0 289:0 290:0 291:0 292:0 293:1 294:1 295:1 296:1 297:1 298:1 299:1 300:1 301:1 302:1 303:1 304:1 305:1 306:0 307:0 308:0 309:0 310:0 311:0 312:1 313:1 314:1 315:1 316:1 317:1 318:1 319:1 320:1 321:1 322:1 323:1 324:1 325:1 326:1 327:1 328:0 329:0 330:1 331:1 332:1 333:1 334:1 335:1 336:1 337:1 338:1 339:1 340:1 341:1 342:1 343:1 344:1 345:1 346:1 347:1 348:1 349:1 350:1 351:1 352:1 353:1 354:1 355:1 356:1 357:1 358:1 359:1 360:1 361:1 362:1 363:1 364:1 365:1 366:1 367:1 368:1 369:1 370:1 371:1 372:1 373:1 374:1 375:1 376:1 377:1 378:1 379:1 380:1 381:1 382:1 383:1 384:1 385:1 386:1 387:1 388:1 389:1 390:1 391:1 392:1 393:1 394:1 395:1 396:1 397:1 398:1 399:1 
0 0.1948546447008945 0 0 0 0 0 0 0 0:1 1:1 2:1 3:1 4:1 5:1 6:1 7:1 8:1 9:1 10:1 11:1 12:1 13:1 14:1 15:1 16:1 17:1 18:1 19:1 20:1 21:1 22:1 23:1 24:1 25:1 26:1 27:1 28:1 29:1 30:1 31:1 32:1 33:1 34:1 35:1 36:1 37:1 38:1 39:1 40:1 41:1 42:1 43:1 44:1 45:1 46:1 47:1 48:1 49:1 50:1 51:1 52:1 53:1 54:1 55:1 56:1 57:1 58:1 59:1 60:1 61:1 62:1 63:1 64:1 65:1 66:1 67:1 68:0 69:0 70:0 71:0 72:0 73:0 74:1 75:1 76:1 77:1 78:1 79:1 80:1 81:1 82:1 83:1 84:1 85:1 86:1 87:1 88:0 89:0 90:0 91:0 92:0 93:0 94:0 95:0 96:0 97:1 98:1 99:1 100:1 101:1 102:1 103:1 104:1 105:1 106:1 107:1 108:0 109:1 110:1 111:1 112:1 113:1 114:1 115:0 116:0 117:1 118:1 119:1 120:1 121:1 122:1 123:1 124:1 125:1 126:1 127:0 128:0 129:1 130:1 131:1 132:1 133:1 134:1 135:1 136:1 137:1 138:1 139:1 140:1 141:1 142:1 143:1 144:1 145:1 146:1 147:0 148:0 149:0 150:0 151:0 152:0 153:1 154:1 155:1 156:1 157:1 158:1 159:1 160:1 161:1 162:1 163:1 164:1 165:1 166:1 167:0 168:0 169:0 170:0 171:0 172:0 173:0 174:0 175:0 176:1 177:1 178:1 179:1 180:1 181:1 182:1 183:1 184:1 185:1 186:1 187:0 188:0 189:0 190:1 191:1 192:1 193:1 194:0 195:0 196:1 197:1 198:1 199:1 200:1 201:1 202:1 203:1 204:1 205:1 206:0 207:0 208:0 209:1 210:1 211:1 212:1 213:1 214:1 215:0 216:0 217:1 218:1 219:1 220:1 221:1 222:1 223:1 224:1 225:1 226:1 227:1 228:1 229:1 230:1 231:1 232:1 233:1 234:1 235:0 236:0 237:1 238:1 239:1 240:1 241:1 242:1 243:1 244:1 245:1 246:1 247:1 248:1 249:1 250:1 251:1 252:1 253:1 254:1 255:0 256:0 257:1 258:1 259:1 260:1 261:1 262:1 263:1 264:1 265:1 266:1 267:1 268:1 269:1 270:1 271:1 272:1 273:1 274:1 275:0 276:0 277:1 278:1 279:1 280:1 281:1 282:1 283:1 284:1 285:1 286:0 287:1 288:1 289:1 290:1 291:1 292:1 293:1 294:0 295:0 296:1 297:1 298:1 299:1 300:1 301:1 302:1 303:1 304:1 305:0 306:0 307:1 308:1 309:1 310:1 311:1 312:1 313:1 314:0 315:0 316:1 317:1 318:1 319:1 320:1 321:1 322:1 323:1 324:1 325:1 326:0 327:0 328:0 329:1 330:1 331:1 332:1 333:0 334:0 335:0 336:1 337:1 338:1 339:1 340:1 341:1 342:1 343:1 344:1 345:1 346:1 347:0 348:0 349:0 350:0 351:0 352:0 353:0 354:0 355:1 356:1 357:1 358:1 359:1 360:1 361:1 362:1 363:1 364:1 365:1 366:1 367:1 368:0 369:0 370:0 371:0 372:0 373:1 374:1 375:1 376:1 377:1 378:1 379:1 380:1 381:1 382:1 383:1 384:1 385:1 386:1 387:1 388:1 389:1 390:1 391:1 392:1 393:1 394:1 395:1 396:1 397:1 398:1 399:1 
